<?xml version="1.0"?>
<opencv_storage>
<stage8>
  <maxWeakCount>18</maxWeakCount>
  <stageThreshold>-4.8264494538307190e-01</stageThreshold>
  <weakClassifiers>
    <_>
      <internalNodes>
        0 -1 54882 -2.6824280619621277e-01</internalNodes>
      <leafValues>
        1.2643678486347198e-01 6.6917294263839722e-01</leafValues></_>
    <_>
      <internalNodes>
        0 -1 1062240 7.1520269557368010e-05</internalNodes>
      <leafValues>
        2.1648208796977997e-01 -4.6873924136161804e-01</leafValues></_>
    <_>
      <internalNodes>
        0 -1 137710 -1.9815552979707718e-02</internalNodes>
      <leafValues>
        7.9726147651672363e-01 -9.1410584747791290e-02</leafValues></_>
    <_>
      <internalNodes>
        0 -1 589372 4.5748993754386902e-02</internalNodes>
      <leafValues>
        -1.2117956578731537e-01 7.3750698566436768e-01</leafValues></_>
    <_>
      <internalNodes>
        0 -1 423719 3.0114963650703430e-02</internalNodes>
      <leafValues>
        -6.9718800485134125e-02 7.3277217149734497e-01</leafValues></_>
    <_>
      <internalNodes>
        0 -1 919601 -1.8431642092764378e-04</internalNodes>
      <leafValues>
        -4.7216698527336121e-01 1.6309365630149841e-01</leafValues></_>
    <_>
      <internalNodes>
        0 -1 256511 3.1618826091289520e-02</internalNodes>
      <leafValues>
        -1.3763774931430817e-01 5.8277416229248047e-01</leafValues></_>
    <_>
      <internalNodes>
        0 -1 1105958 -4.4616503873839974e-04</internalNodes>
      <leafValues>
        -7.4270568788051605e-02 8.1911528110504150e-01</leafValues></_>
    <_>
      <internalNodes>
        0 -1 959443 -8.1205172464251518e-03</internalNodes>
      <leafValues>
        6.1833924055099487e-01 -7.8410997986793518e-02</leafValues></_>
    <_>
      <internalNodes>
        0 -1 959475 4.7217267565429211e-03</internalNodes>
      <leafValues>
        -2.0025855302810669e-01 3.2297000288963318e-01</leafValues></_>
    <_>
      <internalNodes>
        0 -1 142484 2.3845175281167030e-02</internalNodes>
      <leafValues>
        -1.1307305097579956e-01 5.8617949485778809e-01</leafValues></_>
    <_>
      <internalNodes>
        0 -1 1241482 -1.2079635052941740e-04</internalNodes>
      <leafValues>
        -3.5517349839210510e-01 2.1297235786914825e-01</leafValues></_>
    <_>
      <internalNodes>
        0 -1 242051 2.4448325857520103e-02</internalNodes>
      <leafValues>
        -9.4303525984287262e-02 8.2359087467193604e-01</leafValues></_>
    <_>
      <internalNodes>
        0 -1 642454 -7.9497043043375015e-03</internalNodes>
      <leafValues>
        4.4576764106750488e-01 -1.4716032147407532e-01</leafValues></_>
    <_>
      <internalNodes>
        0 -1 351435 -1.2468824163079262e-02</internalNodes>
      <leafValues>
        -6.4209359884262085e-01 1.2275531142950058e-01</leafValues></_>
    <_>
      <internalNodes>
        0 -1 238117 1.5678865020163357e-04</internalNodes>
      <leafValues>
        1.5012690424919128e-01 -4.7956022620201111e-01</leafValues></_>
    <_>
      <internalNodes>
        0 -1 165965 -3.7171191070228815e-04</internalNodes>
      <leafValues>
        4.5148652791976929e-01 -1.8935576081275940e-01</leafValues></_>
    <_>
      <internalNodes>
        0 -1 110402 5.5907098576426506e-03</internalNodes>
      <leafValues>
        -1.1281528323888779e-01 5.6893634796142578e-01</leafValues></_></weakClassifiers></stage8>
</opencv_storage>
