<?xml version="1.0"?>
<opencv_storage>
<stage10>
  <maxWeakCount>24</maxWeakCount>
  <stageThreshold>-5.5647772550582886e-01</stageThreshold>
  <weakClassifiers>
    <_>
      <internalNodes>
        0 -1 291448 -1.0335701704025269e-01</internalNodes>
      <leafValues>
        -8.8235294818878174e-01 4.9718573689460754e-01</leafValues></_>
    <_>
      <internalNodes>
        0 -1 235023 6.1445157043635845e-03</internalNodes>
      <leafValues>
        -1.2397789955139160e-01 5.4601967334747314e-01</leafValues></_>
    <_>
      <internalNodes>
        0 -1 240398 -3.4981105476617813e-02</internalNodes>
      <leafValues>
        4.3577226996421814e-01 -1.7044839262962341e-01</leafValues></_>
    <_>
      <internalNodes>
        0 -1 494994 -1.1663879267871380e-03</internalNodes>
      <leafValues>
        5.3749257326126099e-01 -2.0061683654785156e-01</leafValues></_>
    <_>
      <internalNodes>
        0 -1 1229681 9.6164428396150470e-04</internalNodes>
      <leafValues>
        -1.6139051318168640e-01 3.7515184283256531e-01</leafValues></_>
    <_>
      <internalNodes>
        0 -1 602245 7.9958830028772354e-03</internalNodes>
      <leafValues>
        -1.9165548682212830e-01 4.4034668803215027e-01</leafValues></_>
    <_>
      <internalNodes>
        0 -1 471272 -8.7108870502561331e-04</internalNodes>
      <leafValues>
        4.3612867593765259e-01 -2.1851883828639984e-01</leafValues></_>
    <_>
      <internalNodes>
        0 -1 17780 6.6116526722908020e-02</internalNodes>
      <leafValues>
        -8.1502661108970642e-02 7.4536389112472534e-01</leafValues></_>
    <_>
      <internalNodes>
        0 -1 589060 -2.5357764959335327e-01</internalNodes>
      <leafValues>
        -1.8420648574829102e-01 3.9926385879516602e-01</leafValues></_>
    <_>
      <internalNodes>
        0 -1 1231100 -6.9525521248579025e-03</internalNodes>
      <leafValues>
        6.9366794824600220e-01 -1.0138176381587982e-01</leafValues></_>
    <_>
      <internalNodes>
        0 -1 48928 -1.2417125981301069e-04</internalNodes>
      <leafValues>
        3.2858097553253174e-01 -1.9611929357051849e-01</leafValues></_>
    <_>
      <internalNodes>
        0 -1 877980 -7.6828999444842339e-03</internalNodes>
      <leafValues>
        6.3054054975509644e-01 -1.0949950665235519e-01</leafValues></_>
    <_>
      <internalNodes>
        0 -1 633695 -4.6266531571745872e-03</internalNodes>
      <leafValues>
        7.7511495351791382e-01 -8.3687603473663330e-02</leafValues></_>
    <_>
      <internalNodes>
        0 -1 9 -1.8189686670666561e-05</internalNodes>
      <leafValues>
        -3.2561713457107544e-01 2.1708786487579346e-01</leafValues></_>
    <_>
      <internalNodes>
        0 -1 198882 1.9700776785612106e-02</internalNodes>
      <leafValues>
        -1.1531788110733032e-01 5.7004070281982422e-01</leafValues></_>
    <_>
      <internalNodes>
        0 -1 504297 -4.2130947113037109e-03</internalNodes>
      <leafValues>
        4.6814033389091492e-01 -1.4839586615562439e-01</leafValues></_>
    <_>
      <internalNodes>
        0 -1 1241691 -1.7486777505837381e-04</internalNodes>
      <leafValues>
        3.7641224265098572e-01 -1.6941758990287781e-01</leafValues></_>
    <_>
      <internalNodes>
        0 -1 665262 -1.5247668488882482e-04</internalNodes>
      <leafValues>
        3.4438154101371765e-01 -1.9204296171665192e-01</leafValues></_>
    <_>
      <internalNodes>
        0 -1 12216 -2.1964251995086670e-02</internalNodes>
      <leafValues>
        4.0628251433372498e-01 -1.8569487333297729e-01</leafValues></_>
    <_>
      <internalNodes>
        0 -1 1166192 2.6647414779290557e-04</internalNodes>
      <leafValues>
        -1.3913500308990479e-01 4.4770073890686035e-01</leafValues></_>
    <_>
      <internalNodes>
        0 -1 31624 2.7225380763411522e-03</internalNodes>
      <leafValues>
        -1.4094233512878418e-01 4.2489326000213623e-01</leafValues></_>
    <_>
      <internalNodes>
        0 -1 587351 5.7492603082209826e-04</internalNodes>
      <leafValues>
        -1.5472310781478882e-01 3.8242340087890625e-01</leafValues></_>
    <_>
      <internalNodes>
        0 -1 825786 1.8639254267327487e-04</internalNodes>
      <leafValues>
        1.2440411746501923e-01 -5.3784376382827759e-01</leafValues></_>
    <_>
      <internalNodes>
        0 -1 1216976 1.6726971371099353e-03</internalNodes>
      <leafValues>
        -2.1473401784896851e-01 3.2195261120796204e-01</leafValues></_></weakClassifiers></stage10>
</opencv_storage>
