<?xml version="1.0"?>
<opencv_storage>
<cascade>
  <stageType>BOOST</stageType>
  <featureType>HAAR</featureType>
  <height>17</height>
  <width>17</width>
  <stageParams>
    <boostType>GAB</boostType>
    <minHitRate>9.9500000476837158e-01</minHitRate>
    <maxFalseAlarm>5.0000000000000000e-01</maxFalseAlarm>
    <weightTrimRate>9.4999999999999996e-01</weightTrimRate>
    <maxDepth>1</maxDepth>
    <maxWeakCount>100</maxWeakCount></stageParams>
  <featureParams>
    <maxCatCount>0</maxCatCount>
    <featSize>1</featSize>
    <mode>BASIC</mode></featureParams>
  <stageNum>6</stageNum>
  <stages>
    <!-- stage 0 -->
    <_>
      <maxWeakCount>8</maxWeakCount>
      <stageThreshold>-1.2335572242736816e+00</stageThreshold>
      <weakClassifiers>
        <_>
          <internalNodes>
            0 -1 112 -6.3404887914657593e-01</internalNodes>
          <leafValues>
            -8.4687870740890503e-01 6.0453808307647705e-01</leafValues></_>
        <_>
          <internalNodes>
            0 -1 94 -5.4263505153357983e-03</internalNodes>
          <leafValues>
            4.0536686778068542e-01 -3.0113038420677185e-01</leafValues></_>
        <_>
          <internalNodes>
            0 -1 206 -6.2801249325275421e-02</internalNodes>
          <leafValues>
            -8.5599309206008911e-01 1.3783960044384003e-01</leafValues></_>
        <_>
          <internalNodes>
            0 -1 262 1.5919465571641922e-02</internalNodes>
          <leafValues>
            -1.6523684561252594e-01 3.9132666587829590e-01</leafValues></_>
        <_>
          <internalNodes>
            0 -1 85 1.8911812454462051e-02</internalNodes>
          <leafValues>
            -1.3116797804832458e-01 4.8497673869132996e-01</leafValues></_>
        <_>
          <internalNodes>
            0 -1 269 -1.5956189483404160e-02</internalNodes>
          <leafValues>
            5.1170349121093750e-01 -1.2111774832010269e-01</leafValues></_>
        <_>
          <internalNodes>
            0 -1 88 -8.2142889499664307e-02</internalNodes>
          <leafValues>
            -2.3957079648971558e-01 2.5473803281784058e-01</leafValues></_>
        <_>
          <internalNodes>
            0 -1 271 1.6026196535676718e-03</internalNodes>
          <leafValues>
            -1.0190106928348541e-01 4.3370556831359863e-01</leafValues></_></weakClassifiers></_>
    <!-- stage 1 -->
    <_>
      <maxWeakCount>21</maxWeakCount>
      <stageThreshold>-1.3864550590515137e+00</stageThreshold>
      <weakClassifiers>
        <_>
          <internalNodes>
            0 -1 150 -8.9631803333759308e-02</internalNodes>
          <leafValues>
            -7.4358975887298584e-01 4.4981414079666138e-01</leafValues></_>
        <_>
          <internalNodes>
            0 -1 143 -4.2698439210653305e-03</internalNodes>
          <leafValues>
            4.0886425971984863e-01 -3.2770955562591553e-01</leafValues></_>
        <_>
          <internalNodes>
            0 -1 42 -8.5005521774291992e-02</internalNodes>
          <leafValues>
            -3.7852022051811218e-01 2.4703429639339447e-01</leafValues></_>
        <_>
          <internalNodes>
            0 -1 188 -4.7429656842723489e-04</internalNodes>
          <leafValues>
            4.3050673604011536e-01 -1.7278325557708740e-01</leafValues></_>
        <_>
          <internalNodes>
            0 -1 12 5.1803505420684814e-01</internalNodes>
          <leafValues>
            7.6985225081443787e-02 -8.1135666370391846e-01</leafValues></_>
        <_>
          <internalNodes>
            0 -1 1 -4.3328210711479187e-02</internalNodes>
          <leafValues>
            -1. -6.4064376056194305e-03</leafValues></_>
        <_>
          <internalNodes>
            0 -1 174 -2.7648154646158218e-03</internalNodes>
          <leafValues>
            4.0336841344833374e-01 -1.4883653819561005e-01</leafValues></_>
        <_>
          <internalNodes>
            0 -1 157 2.4354453198611736e-03</internalNodes>
          <leafValues>
            -2.0106473565101624e-01 5.0740671157836914e-01</leafValues></_>
        <_>
          <internalNodes>
            0 -1 274 5.0439080223441124e-03</internalNodes>
          <leafValues>
            -1.5502032637596130e-01 4.1213229298591614e-01</leafValues></_>
        <_>
          <internalNodes>
            0 -1 116 1.6081088688224554e-03</internalNodes>
          <leafValues>
            -1.3669814169406891e-01 4.1019737720489502e-01</leafValues></_>
        <_>
          <internalNodes>
            0 -1 276 5.4384786635637283e-03</internalNodes>
          <leafValues>
            -1.2982051074504852e-01 4.3681049346923828e-01</leafValues></_>
        <_>
          <internalNodes>
            0 -1 147 2.6682342868298292e-03</internalNodes>
          <leafValues>
            -1.0510944575071335e-01 4.3993118405342102e-01</leafValues></_>
        <_>
          <internalNodes>
            0 -1 129 -5.7958457618951797e-03</internalNodes>
          <leafValues>
            4.7141405940055847e-01 -1.6998742520809174e-01</leafValues></_>
        <_>
          <internalNodes>
            0 -1 191 -8.1229865550994873e-02</internalNodes>
          <leafValues>
            -6.7848032712936401e-01 8.8398911058902740e-02</leafValues></_>
        <_>
          <internalNodes>
            0 -1 272 2.8418551664799452e-03</internalNodes>
          <leafValues>
            -1.0221537947654724e-01 5.0426870584487915e-01</leafValues></_>
        <_>
          <internalNodes>
            0 -1 163 6.4376746304333210e-03</internalNodes>
          <leafValues>
            -1.1461890488862991e-01 3.9896622300148010e-01</leafValues></_>
        <_>
          <internalNodes>
            0 -1 197 -1.4088884927332401e-03</internalNodes>
          <leafValues>
            2.6962763071060181e-01 -1.9309999048709869e-01</leafValues></_>
        <_>
          <internalNodes>
            0 -1 136 -3.2446466386318207e-02</internalNodes>
          <leafValues>
            -1.1558382958173752e-01 3.5639339685440063e-01</leafValues></_>
        <_>
          <internalNodes>
            0 -1 84 1.7090156674385071e-02</internalNodes>
          <leafValues>
            -1.1386341601610184e-01 4.0798738598823547e-01</leafValues></_>
        <_>
          <internalNodes>
            0 -1 107 -1.0312842205166817e-02</internalNodes>
          <leafValues>
            4.4684821367263794e-01 -1.1245225369930267e-01</leafValues></_>
        <_>
          <internalNodes>
            0 -1 202 2.1950392052531242e-02</internalNodes>
          <leafValues>
            -8.7995558977127075e-02 4.1857674717903137e-01</leafValues></_></weakClassifiers></_>
    <!-- stage 2 -->
    <_>
      <maxWeakCount>37</maxWeakCount>
      <stageThreshold>-1.1672530174255371e+00</stageThreshold>
      <weakClassifiers>
        <_>
          <internalNodes>
            0 -1 154 -6.5148025751113892e-03</internalNodes>
          <leafValues>
            5.8556801080703735e-01 -1.1973723769187927e-01</leafValues></_>
        <_>
          <internalNodes>
            0 -1 139 -3.8511822931468487e-03</internalNodes>
          <leafValues>
            4.1673940420150757e-01 -1.3017870485782623e-01</leafValues></_>
        <_>
          <internalNodes>
            0 -1 28 -1.2274034321308136e-02</internalNodes>
          <leafValues>
            3.1515848636627197e-01 -1.7703165113925934e-01</leafValues></_>
        <_>
          <internalNodes>
            0 -1 103 5.4527376778423786e-03</internalNodes>
          <leafValues>
            -1.2712439894676208e-01 4.8900327086448669e-01</leafValues></_>
        <_>
          <internalNodes>
            0 -1 132 -5.0173560157418251e-03</internalNodes>
          <leafValues>
            3.9128336310386658e-01 -1.8254974484443665e-01</leafValues></_>
        <_>
          <internalNodes>
            0 -1 159 2.4378966540098190e-02</internalNodes>
          <leafValues>
            -1.1820348352193832e-01 4.4436237215995789e-01</leafValues></_>
        <_>
          <internalNodes>
            0 -1 190 3.8632680661976337e-03</internalNodes>
          <leafValues>
            -1.5689228475093842e-01 3.4600123763084412e-01</leafValues></_>
        <_>
          <internalNodes>
            0 -1 220 -2.9205470345914364e-03</internalNodes>
          <leafValues>
            3.5901904106140137e-01 -1.3588963449001312e-01</leafValues></_>
        <_>
          <internalNodes>
            0 -1 32 -2.4790892004966736e-01</internalNodes>
          <leafValues>
            -4.7826939821243286e-01 1.3275064527988434e-01</leafValues></_>
        <_>
          <internalNodes>
            0 -1 282 8.8530937209725380e-03</internalNodes>
          <leafValues>
            -1.3777007162570953e-01 3.7044936418533325e-01</leafValues></_>
        <_>
          <internalNodes>
            0 -1 81 2.1696303039789200e-02</internalNodes>
          <leafValues>
            -6.8959876894950867e-02 4.8111322522163391e-01</leafValues></_>
        <_>
          <internalNodes>
            0 -1 178 -3.9751837030053139e-03</internalNodes>
          <leafValues>
            2.9273220896720886e-01 -1.3812954723834991e-01</leafValues></_>
        <_>
          <internalNodes>
            0 -1 198 3.0906153842806816e-03</internalNodes>
          <leafValues>
            -1.2932515144348145e-01 3.4335982799530029e-01</leafValues></_>
        <_>
          <internalNodes>
            0 -1 117 1.8076011911034584e-03</internalNodes>
          <leafValues>
            -8.9071288704872131e-02 3.8315761089324951e-01</leafValues></_>
        <_>
          <internalNodes>
            0 -1 47 -3.7078903988003731e-03</internalNodes>
          <leafValues>
            3.7919792532920837e-01 -1.1565229296684265e-01</leafValues></_>
        <_>
          <internalNodes>
            0 -1 30 -5.0173839554190636e-03</internalNodes>
          <leafValues>
            3.1663793325424194e-01 -1.0239468514919281e-01</leafValues></_>
        <_>
          <internalNodes>
            0 -1 51 -8.5050180554389954e-02</internalNodes>
          <leafValues>
            -4.8361665010452271e-01 6.8471930921077728e-02</leafValues></_>
        <_>
          <internalNodes>
            0 -1 11 3.7777248769998550e-02</internalNodes>
          <leafValues>
            7.6420672237873077e-02 -4.7532281279563904e-01</leafValues></_>
        <_>
          <internalNodes>
            0 -1 211 -9.8124716896563768e-04</internalNodes>
          <leafValues>
            3.6984515190124512e-01 -9.7428031265735626e-02</leafValues></_>
        <_>
          <internalNodes>
            0 -1 223 -3.3424696885049343e-03</internalNodes>
          <leafValues>
            2.6618340611457825e-01 -1.2076354026794434e-01</leafValues></_>
        <_>
          <internalNodes>
            0 -1 99 -3.8844767957925797e-02</internalNodes>
          <leafValues>
            3.4893983602523804e-01 -8.1987760961055756e-02</leafValues></_>
        <_>
          <internalNodes>
            0 -1 275 -1.0982234030961990e-02</internalNodes>
          <leafValues>
            3.9533945918083191e-01 -7.1782320737838745e-02</leafValues></_>
        <_>
          <internalNodes>
            0 -1 279 -4.3000499717891216e-03</internalNodes>
          <leafValues>
            4.0829747915267944e-01 -5.7411190122365952e-02</leafValues></_>
        <_>
          <internalNodes>
            0 -1 208 -1.2047054618597031e-01</internalNodes>
          <leafValues>
            -4.9675250053405762e-01 6.2009222805500031e-02</leafValues></_>
        <_>
          <internalNodes>
            0 -1 144 1.9455043599009514e-02</internalNodes>
          <leafValues>
            -6.8566642701625824e-02 4.7389146685600281e-01</leafValues></_>
        <_>
          <internalNodes>
            0 -1 239 3.1032327562570572e-02</internalNodes>
          <leafValues>
            -9.6162274479866028e-02 3.0710804462432861e-01</leafValues></_>
        <_>
          <internalNodes>
            0 -1 76 9.9208718165755272e-03</internalNodes>
          <leafValues>
            -8.0426841974258423e-02 3.4666249155998230e-01</leafValues></_>
        <_>
          <internalNodes>
            0 -1 258 1.7085033468902111e-03</internalNodes>
          <leafValues>
            -7.2393178939819336e-02 3.5345798730850220e-01</leafValues></_>
        <_>
          <internalNodes>
            0 -1 45 3.8247215561568737e-03</internalNodes>
          <leafValues>
            -8.8986158370971680e-02 2.4476115405559540e-01</leafValues></_>
        <_>
          <internalNodes>
            0 -1 286 7.0468813180923462e-02</internalNodes>
          <leafValues>
            3.4650333225727081e-02 -6.7045933008193970e-01</leafValues></_>
        <_>
          <internalNodes>
            0 -1 207 2.8042967896908522e-03</internalNodes>
          <leafValues>
            -4.8585090786218643e-02 4.8838073015213013e-01</leafValues></_>
        <_>
          <internalNodes>
            0 -1 70 -8.7449944112449884e-04</internalNodes>
          <leafValues>
            1.6773544251918793e-01 -1.2564963102340698e-01</leafValues></_>
        <_>
          <internalNodes>
            0 -1 26 1.8415130674839020e-01</internalNodes>
          <leafValues>
            3.5221710801124573e-02 -7.2811394929885864e-01</leafValues></_>
        <_>
          <internalNodes>
            0 -1 106 1.4583060517907143e-02</internalNodes>
          <leafValues>
            -6.2459357082843781e-02 4.0406388044357300e-01</leafValues></_>
        <_>
          <internalNodes>
            0 -1 184 -1.3288691639900208e-01</internalNodes>
          <leafValues>
            4.0768802165985107e-01 -4.7493886202573776e-02</leafValues></_>
        <_>
          <internalNodes>
            0 -1 205 4.4527184218168259e-03</internalNodes>
          <leafValues>
            -7.6189801096916199e-02 2.9134598374366760e-01</leafValues></_>
        <_>
          <internalNodes>
            0 -1 53 -1.0099832899868488e-02</internalNodes>
          <leafValues>
            3.2040551304817200e-01 -6.7546136677265167e-02</leafValues></_></weakClassifiers></_>
    <!-- stage 3 -->
    <_>
      <maxWeakCount>52</maxWeakCount>
      <stageThreshold>-1.2453402280807495e+00</stageThreshold>
      <weakClassifiers>
        <_>
          <internalNodes>
            0 -1 58 -2.3241573572158813e-01</internalNodes>
          <leafValues>
            -6.5995526313781738e-01 5.4817277193069458e-01</leafValues></_>
        <_>
          <internalNodes>
            0 -1 123 -1.2999747879803181e-02</internalNodes>
          <leafValues>
            3.9237537980079651e-01 -1.6845777630805969e-01</leafValues></_>
        <_>
          <internalNodes>
            0 -1 64 -1.1897839605808258e-01</internalNodes>
          <leafValues>
            -3.4680095314979553e-01 1.9955050945281982e-01</leafValues></_>
        <_>
          <internalNodes>
            0 -1 170 1.9137121737003326e-02</internalNodes>
          <leafValues>
            -8.1196635961532593e-02 4.7973605990409851e-01</leafValues></_>
        <_>
          <internalNodes>
            0 -1 161 1.8411440774798393e-02</internalNodes>
          <leafValues>
            -6.7945495247840881e-02 6.0019969940185547e-01</leafValues></_>
        <_>
          <internalNodes>
            0 -1 52 2.9061591625213623e-01</internalNodes>
          <leafValues>
            6.2511458992958069e-02 -5.3218924999237061e-01</leafValues></_>
        <_>
          <internalNodes>
            0 -1 17 4.9019852280616760e-01</internalNodes>
          <leafValues>
            5.4594859480857849e-02 -5.5365926027297974e-01</leafValues></_>
        <_>
          <internalNodes>
            0 -1 16 -4.3240368366241455e-01</internalNodes>
          <leafValues>
            -5.9046393632888794e-01 3.9367549121379852e-02</leafValues></_>
        <_>
          <internalNodes>
            0 -1 18 1.2986371293663979e-03</internalNodes>
          <leafValues>
            9.6761450171470642e-02 -2.6012033224105835e-01</leafValues></_>
        <_>
          <internalNodes>
            0 -1 218 -7.5379842892289162e-03</internalNodes>
          <leafValues>
            4.2870697379112244e-01 -4.0399193763732910e-02</leafValues></_>
        <_>
          <internalNodes>
            0 -1 86 -3.3268934488296509e-01</internalNodes>
          <leafValues>
            -4.7976991534233093e-01 4.2064186185598373e-02</leafValues></_>
        <_>
          <internalNodes>
            0 -1 61 -9.5803877338767052e-03</internalNodes>
          <leafValues>
            2.1575208008289337e-01 -1.0302524268627167e-01</leafValues></_>
        <_>
          <internalNodes>
            0 -1 62 3.6391150206327438e-02</internalNodes>
          <leafValues>
            -6.6682755947113037e-02 4.0080437064170837e-01</leafValues></_>
        <_>
          <internalNodes>
            0 -1 0 -9.1030925977975130e-04</internalNodes>
          <leafValues>
            -2.9368749260902405e-01 8.0345690250396729e-02</leafValues></_>
        <_>
          <internalNodes>
            0 -1 155 -6.4601041376590729e-03</internalNodes>
          <leafValues>
            3.4520372748374939e-01 -6.8826459348201752e-02</leafValues></_>
        <_>
          <internalNodes>
            0 -1 55 -9.9409027025103569e-03</internalNodes>
          <leafValues>
            3.4673976898193359e-01 -7.0203460752964020e-02</leafValues></_>
        <_>
          <internalNodes>
            0 -1 280 4.8311785212717950e-04</internalNodes>
          <leafValues>
            1.0477497428655624e-01 -2.0427271723747253e-01</leafValues></_>
        <_>
          <internalNodes>
            0 -1 194 1.1102208867669106e-02</internalNodes>
          <leafValues>
            -4.7775834798812866e-02 4.6086108684539795e-01</leafValues></_>
        <_>
          <internalNodes>
            0 -1 199 5.4240651428699493e-02</internalNodes>
          <leafValues>
            -6.2318459153175354e-02 3.5911339521408081e-01</leafValues></_>
        <_>
          <internalNodes>
            0 -1 245 -1.5666998922824860e-02</internalNodes>
          <leafValues>
            4.5661258697509766e-01 -5.1627062261104584e-02</leafValues></_>
        <_>
          <internalNodes>
            0 -1 196 6.3714273273944855e-03</internalNodes>
          <leafValues>
            -4.8596188426017761e-02 3.9298540353775024e-01</leafValues></_>
        <_>
          <internalNodes>
            0 -1 183 -3.9237730205059052e-02</internalNodes>
          <leafValues>
            -1.1654391884803772e-01 1.9376799464225769e-01</leafValues></_>
        <_>
          <internalNodes>
            0 -1 247 -4.4354449957609177e-02</internalNodes>
          <leafValues>
            5.3480988740921021e-01 -3.7039138376712799e-02</leafValues></_>
        <_>
          <internalNodes>
            0 -1 120 -6.3852407038211823e-03</internalNodes>
          <leafValues>
            4.4031925499439240e-02 -5.0703698396682739e-01</leafValues></_>
        <_>
          <internalNodes>
            0 -1 108 2.6937255635857582e-02</internalNodes>
          <leafValues>
            -5.4105740040540695e-02 3.9846199750900269e-01</leafValues></_>
        <_>
          <internalNodes>
            0 -1 104 -7.4148783460259438e-03</internalNodes>
          <leafValues>
            2.6285544037818909e-01 -7.4645675718784332e-02</leafValues></_>
        <_>
          <internalNodes>
            0 -1 115 -2.8592489659786224e-02</internalNodes>
          <leafValues>
            -6.6903305053710938e-01 2.9873646795749664e-02</leafValues></_>
        <_>
          <internalNodes>
            0 -1 121 2.3070117458701134e-03</internalNodes>
          <leafValues>
            7.5863085687160492e-02 -2.2510889172554016e-01</leafValues></_>
        <_>
          <internalNodes>
            0 -1 74 -7.6601924374699593e-03</internalNodes>
          <leafValues>
            -2.1719865500926971e-01 8.5064314305782318e-02</leafValues></_>
        <_>
          <internalNodes>
            0 -1 118 1.1554287746548653e-02</internalNodes>
          <leafValues>
            -6.2731251120567322e-02 3.1225410103797913e-01</leafValues></_>
        <_>
          <internalNodes>
            0 -1 193 -5.7811476290225983e-02</internalNodes>
          <leafValues>
            -8.8461950421333313e-02 1.9317331910133362e-01</leafValues></_>
        <_>
          <internalNodes>
            0 -1 250 6.0448208823800087e-03</internalNodes>
          <leafValues>
            -6.3243262469768524e-02 2.6881170272827148e-01</leafValues></_>
        <_>
          <internalNodes>
            0 -1 189 -1.0802043601870537e-02</internalNodes>
          <leafValues>
            2.8262373805046082e-01 -5.7483676820993423e-02</leafValues></_>
        <_>
          <internalNodes>
            0 -1 73 1.5596018638461828e-03</internalNodes>
          <leafValues>
            7.4273079633712769e-02 -2.3026365041732788e-01</leafValues></_>
        <_>
          <internalNodes>
            0 -1 6 -4.0198143571615219e-02</internalNodes>
          <leafValues>
            2.8760704398155212e-01 -6.6053211688995361e-02</leafValues></_>
        <_>
          <internalNodes>
            0 -1 109 6.1795547604560852e-02</internalNodes>
          <leafValues>
            -2.6688156649470329e-02 6.1141377687454224e-01</leafValues></_>
        <_>
          <internalNodes>
            0 -1 149 4.1152141056954861e-03</internalNodes>
          <leafValues>
            -1.2560689449310303e-01 1.4052227139472961e-01</leafValues></_>
        <_>
          <internalNodes>
            0 -1 280 -7.7050831168889999e-04</internalNodes>
          <leafValues>
            -2.3499600589275360e-01 7.0627599954605103e-02</leafValues></_>
        <_>
          <internalNodes>
            0 -1 227 -4.8992283642292023e-02</internalNodes>
          <leafValues>
            3.7946882843971252e-01 -4.2155474424362183e-02</leafValues></_>
        <_>
          <internalNodes>
            0 -1 72 9.1897383332252502e-02</internalNodes>
          <leafValues>
            1.6659758985042572e-02 -9.6356958150863647e-01</leafValues></_>
        <_>
          <internalNodes>
            0 -1 213 -6.2869912944734097e-03</internalNodes>
          <leafValues>
            3.3823633193969727e-01 -4.8936147242784500e-02</leafValues></_>
        <_>
          <internalNodes>
            0 -1 158 -1.0166837275028229e-01</internalNodes>
          <leafValues>
            -3.0835446715354919e-01 5.1406070590019226e-02</leafValues></_>
        <_>
          <internalNodes>
            0 -1 268 -5.2133478224277496e-02</internalNodes>
          <leafValues>
            5.3238320350646973e-01 -3.2795231789350510e-02</leafValues></_>
        <_>
          <internalNodes>
            0 -1 283 6.0460316017270088e-03</internalNodes>
          <leafValues>
            -4.3365243822336197e-02 3.5181671380996704e-01</leafValues></_>
        <_>
          <internalNodes>
            0 -1 125 5.3167566657066345e-02</internalNodes>
          <leafValues>
            -3.3941604197025299e-02 4.9539697170257568e-01</leafValues></_>
        <_>
          <internalNodes>
            0 -1 130 -1.5801101922988892e-02</internalNodes>
          <leafValues>
            2.8122454881668091e-01 -6.0177922248840332e-02</leafValues></_>
        <_>
          <internalNodes>
            0 -1 15 -2.1467265486717224e-01</internalNodes>
          <leafValues>
            -7.2194635868072510e-01 2.1451501175761223e-02</leafValues></_>
        <_>
          <internalNodes>
            0 -1 162 -6.3701346516609192e-03</internalNodes>
          <leafValues>
            1.5997959673404694e-01 -1.0409513115882874e-01</leafValues></_>
        <_>
          <internalNodes>
            0 -1 259 -1.7185101751238108e-03</internalNodes>
          <leafValues>
            -2.9498878121376038e-01 5.6685473769903183e-02</leafValues></_>
        <_>
          <internalNodes>
            0 -1 260 -2.9316539876163006e-03</internalNodes>
          <leafValues>
            3.7436064332723618e-02 -4.0937346220016479e-01</leafValues></_>
        <_>
          <internalNodes>
            0 -1 214 2.1524734620470554e-04</internalNodes>
          <leafValues>
            9.8647519946098328e-02 -1.5973921120166779e-01</leafValues></_>
        <_>
          <internalNodes>
            0 -1 4 8.4392413496971130e-02</internalNodes>
          <leafValues>
            3.7570338696241379e-02 -4.1106459498405457e-01</leafValues></_></weakClassifiers></_>
    <!-- stage 4 -->
    <_>
      <maxWeakCount>82</maxWeakCount>
      <stageThreshold>-1.0640280246734619e+00</stageThreshold>
      <weakClassifiers>
        <_>
          <internalNodes>
            0 -1 77 -1.6509360074996948e-01</internalNodes>
          <leafValues>
            -2.5000000000000000e-01 3.3551198244094849e-01</leafValues></_>
        <_>
          <internalNodes>
            0 -1 172 -1.0351896286010742e-02</internalNodes>
          <leafValues>
            4.5859071612358093e-01 -1.1360185593366623e-01</leafValues></_>
        <_>
          <internalNodes>
            0 -1 17 4.8521572351455688e-01</internalNodes>
          <leafValues>
            7.8934341669082642e-02 -6.0297334194183350e-01</leafValues></_>
        <_>
          <internalNodes>
            0 -1 226 -4.4567763805389404e-02</internalNodes>
          <leafValues>
            3.5989308357238770e-01 -9.1563768684864044e-02</leafValues></_>
        <_>
          <internalNodes>
            0 -1 238 5.6257352232933044e-02</internalNodes>
          <leafValues>
            -1.2883774936199188e-01 2.6500225067138672e-01</leafValues></_>
        <_>
          <internalNodes>
            0 -1 78 2.3809012025594711e-02</internalNodes>
          <leafValues>
            -1.2523064017295837e-01 2.3522934317588806e-01</leafValues></_>
        <_>
          <internalNodes>
            0 -1 49 5.8717988431453705e-02</internalNodes>
          <leafValues>
            -8.6964048445224762e-02 3.6284005641937256e-01</leafValues></_>
        <_>
          <internalNodes>
            0 -1 56 -5.9440396726131439e-02</internalNodes>
          <leafValues>
            3.8834106922149658e-01 -7.0035658776760101e-02</leafValues></_>
        <_>
          <internalNodes>
            0 -1 195 -6.6493004560470581e-03</internalNodes>
          <leafValues>
            2.9575818777084351e-01 -6.2939025461673737e-02</leafValues></_>
        <_>
          <internalNodes>
            0 -1 232 -6.8524949252605438e-02</internalNodes>
          <leafValues>
            -3.1157550215721130e-01 7.9974360764026642e-02</leafValues></_>
        <_>
          <internalNodes>
            0 -1 265 -4.5346561819314957e-02</internalNodes>
          <leafValues>
            4.5977404713630676e-01 -4.6772588044404984e-02</leafValues></_>
        <_>
          <internalNodes>
            0 -1 89 5.4592634551227093e-03</internalNodes>
          <leafValues>
            -1.1103687435388565e-01 2.0252962410449982e-01</leafValues></_>
        <_>
          <internalNodes>
            0 -1 140 -9.6766650676727295e-03</internalNodes>
          <leafValues>
            4.0377208590507507e-01 -5.3670037537813187e-02</leafValues></_>
        <_>
          <internalNodes>
            0 -1 40 -2.9612408950924873e-02</internalNodes>
          <leafValues>
            -5.9381800889968872e-01 4.6334128826856613e-02</leafValues></_>
        <_>
          <internalNodes>
            0 -1 168 -1.6203358769416809e-02</internalNodes>
          <leafValues>
            -5.4770308732986450e-01 2.2672696039080620e-02</leafValues></_>
        <_>
          <internalNodes>
            0 -1 138 2.0867557823657990e-01</internalNodes>
          <leafValues>
            3.5559613257646561e-02 -6.4470767974853516e-01</leafValues></_>
        <_>
          <internalNodes>
            0 -1 97 -6.4329877495765686e-02</internalNodes>
          <leafValues>
            2.9253381490707397e-01 -6.1358984559774399e-02</leafValues></_>
        <_>
          <internalNodes>
            0 -1 101 8.3019491285085678e-03</internalNodes>
          <leafValues>
            -8.2595311105251312e-02 2.6778146624565125e-01</leafValues></_>
        <_>
          <internalNodes>
            0 -1 33 -2.0556449890136719e-02</internalNodes>
          <leafValues>
            2.7608925104141235e-01 -7.1261487901210785e-02</leafValues></_>
        <_>
          <internalNodes>
            0 -1 24 -3.5008631646633148e-02</internalNodes>
          <leafValues>
            -2.9154735803604126e-01 7.2643622756004333e-02</leafValues></_>
        <_>
          <internalNodes>
            0 -1 67 9.2335743829607964e-03</internalNodes>
          <leafValues>
            -6.3595749437808990e-02 3.0327525734901428e-01</leafValues></_>
        <_>
          <internalNodes>
            0 -1 166 -2.6043851903523318e-05</internalNodes>
          <leafValues>
            1.3354639708995819e-01 -1.3496491312980652e-01</leafValues></_>
        <_>
          <internalNodes>
            0 -1 46 -4.3825831264257431e-02</internalNodes>
          <leafValues>
            4.0852114558219910e-02 -5.6216245889663696e-01</leafValues></_>
        <_>
          <internalNodes>
            0 -1 93 -1.3926045969128609e-02</internalNodes>
          <leafValues>
            1.8818205595016479e-01 -9.8648235201835632e-02</leafValues></_>
        <_>
          <internalNodes>
            0 -1 9 2.5940036401152611e-02</internalNodes>
          <leafValues>
            6.1472281813621521e-02 -3.2044512033462524e-01</leafValues></_>
        <_>
          <internalNodes>
            0 -1 173 -1.2825582176446915e-02</internalNodes>
          <leafValues>
            3.7766227126121521e-01 -4.9136951565742493e-02</leafValues></_>
        <_>
          <internalNodes>
            0 -1 124 -1.4394675195217133e-01</internalNodes>
          <leafValues>
            -1.1773090809583664e-01 1.4861096441745758e-01</leafValues></_>
        <_>
          <internalNodes>
            0 -1 210 -9.7714483737945557e-02</internalNodes>
          <leafValues>
            4.8672294616699219e-01 -3.7274859845638275e-02</leafValues></_>
        <_>
          <internalNodes>
            0 -1 4 -9.8815232515335083e-02</internalNodes>
          <leafValues>
            -4.6151784062385559e-01 4.0848646312952042e-02</leafValues></_>
        <_>
          <internalNodes>
            0 -1 92 -1.1934707872569561e-02</internalNodes>
          <leafValues>
            3.9839047193527222e-01 -4.6721637248992920e-02</leafValues></_>
        <_>
          <internalNodes>
            0 -1 267 -2.1423231810331345e-02</internalNodes>
          <leafValues>
            2.8040018677711487e-01 -5.5279012769460678e-02</leafValues></_>
        <_>
          <internalNodes>
            0 -1 264 1.8293097615242004e-02</internalNodes>
          <leafValues>
            -7.3166102170944214e-02 2.7996808290481567e-01</leafValues></_>
        <_>
          <internalNodes>
            0 -1 273 -2.7907527983188629e-03</internalNodes>
          <leafValues>
            -4.1075825691223145e-01 4.4847365468740463e-02</leafValues></_>
        <_>
          <internalNodes>
            0 -1 273 4.3269172310829163e-03</internalNodes>
          <leafValues>
            2.7136059477925301e-02 -4.8487424850463867e-01</leafValues></_>
        <_>
          <internalNodes>
            0 -1 257 -5.0976797938346863e-02</internalNodes>
          <leafValues>
            -7.1539235115051270e-01 1.8312061205506325e-02</leafValues></_>
        <_>
          <internalNodes>
            0 -1 263 -2.7310792356729507e-02</internalNodes>
          <leafValues>
            4.1255927085876465e-01 -3.9715196937322617e-02</leafValues></_>
        <_>
          <internalNodes>
            0 -1 137 -2.2990740835666656e-02</internalNodes>
          <leafValues>
            -5.6361019611358643e-01 2.9838379472494125e-02</leafValues></_>
        <_>
          <internalNodes>
            0 -1 82 2.7042062953114510e-02</internalNodes>
          <leafValues>
            -5.4840259253978729e-02 2.5470745563507080e-01</leafValues></_>
        <_>
          <internalNodes>
            0 -1 29 -4.1086971759796143e-02</internalNodes>
          <leafValues>
            1.9806848466396332e-01 -7.8517310321331024e-02</leafValues></_>
        <_>
          <internalNodes>
            0 -1 221 -4.8046484589576721e-03</internalNodes>
          <leafValues>
            1.5426295995712280e-01 -1.0248894989490509e-01</leafValues></_>
        <_>
          <internalNodes>
            0 -1 219 4.7053727321326733e-03</internalNodes>
          <leafValues>
            -7.2619676589965820e-02 2.1380046010017395e-01</leafValues></_>
        <_>
          <internalNodes>
            0 -1 229 -2.4473117664456367e-03</internalNodes>
          <leafValues>
            1.9098575413227081e-01 -7.8430078923702240e-02</leafValues></_>
        <_>
          <internalNodes>
            0 -1 187 -1.6841445118188858e-02</internalNodes>
          <leafValues>
            -4.4952341914176941e-01 2.9824083670973778e-02</leafValues></_>
        <_>
          <internalNodes>
            0 -1 151 -1.1757963337004185e-02</internalNodes>
          <leafValues>
            2.0447988808155060e-01 -6.7453183233737946e-02</leafValues></_>
        <_>
          <internalNodes>
            0 -1 126 2.3988820612430573e-03</internalNodes>
          <leafValues>
            -9.6876673400402069e-02 1.5932130813598633e-01</leafValues></_>
        <_>
          <internalNodes>
            0 -1 231 3.2745406497269869e-03</internalNodes>
          <leafValues>
            3.7275962531566620e-02 -4.1868895292282104e-01</leafValues></_>
        <_>
          <internalNodes>
            0 -1 57 6.3514649868011475e-02</internalNodes>
          <leafValues>
            -8.3188265562057495e-02 1.7290942370891571e-01</leafValues></_>
        <_>
          <internalNodes>
            0 -1 50 -2.6592917740345001e-02</internalNodes>
          <leafValues>
            -2.5045365095138550e-01 5.9353291988372803e-02</leafValues></_>
        <_>
          <internalNodes>
            0 -1 105 -1.1341243982315063e-01</internalNodes>
          <leafValues>
            3.7252637743949890e-01 -4.2333092540502548e-02</leafValues></_>
        <_>
          <internalNodes>
            0 -1 35 -1.4902759343385696e-02</internalNodes>
          <leafValues>
            -3.8544043898582458e-01 3.7751689553260803e-02</leafValues></_>
        <_>
          <internalNodes>
            0 -1 171 1.7274757847189903e-02</internalNodes>
          <leafValues>
            -6.8991228938102722e-02 1.9589614868164062e-01</leafValues></_>
        <_>
          <internalNodes>
            0 -1 160 -6.8304240703582764e-02</internalNodes>
          <leafValues>
            -6.6635623574256897e-02 2.0373076200485229e-01</leafValues></_>
        <_>
          <internalNodes>
            0 -1 185 -5.1908034947700799e-05</internalNodes>
          <leafValues>
            1.2405549734830856e-01 -1.2373300641775131e-01</leafValues></_>
        <_>
          <internalNodes>
            0 -1 236 9.6389986574649811e-03</internalNodes>
          <leafValues>
            -6.7354008555412292e-02 1.9585236907005310e-01</leafValues></_>
        <_>
          <internalNodes>
            0 -1 222 2.9040086083114147e-03</internalNodes>
          <leafValues>
            -7.3308870196342468e-02 1.6084243357181549e-01</leafValues></_>
        <_>
          <internalNodes>
            0 -1 113 1.8333908170461655e-02</internalNodes>
          <leafValues>
            2.2814737632870674e-02 -6.1972659826278687e-01</leafValues></_>
        <_>
          <internalNodes>
            0 -1 278 2.3502302356064320e-03</internalNodes>
          <leafValues>
            -8.6215928196907043e-02 1.4030912518501282e-01</leafValues></_>
        <_>
          <internalNodes>
            0 -1 243 -1.6544777899980545e-03</internalNodes>
          <leafValues>
            1.5609622001647949e-01 -9.7799614071846008e-02</leafValues></_>
        <_>
          <internalNodes>
            0 -1 87 1.4861674979329109e-02</internalNodes>
          <leafValues>
            2.9456127434968948e-02 -4.3019661307334900e-01</leafValues></_>
        <_>
          <internalNodes>
            0 -1 27 1.9598294049501419e-02</internalNodes>
          <leafValues>
            -3.0693579465150833e-02 4.1669920086860657e-01</leafValues></_>
        <_>
          <internalNodes>
            0 -1 231 -1.2930203229188919e-03</internalNodes>
          <leafValues>
            -2.1133981645107269e-01 5.4346051067113876e-02</leafValues></_>
        <_>
          <internalNodes>
            0 -1 44 -8.5652136476710439e-05</internalNodes>
          <leafValues>
            1.1284744367003441e-02 -8.4129887819290161e-01</leafValues></_>
        <_>
          <internalNodes>
            0 -1 21 -1.9600953906774521e-02</internalNodes>
          <leafValues>
            1.3071124255657196e-01 -8.7712913751602173e-02</leafValues></_>
        <_>
          <internalNodes>
            0 -1 5 -3.4679234027862549e-01</internalNodes>
          <leafValues>
            -8.7890619039535522e-01 1.2243995442986488e-02</leafValues></_>
        <_>
          <internalNodes>
            0 -1 261 -1.0166445281356573e-03</internalNodes>
          <leafValues>
            -2.1342104673385620e-01 4.8946019262075424e-02</leafValues></_>
        <_>
          <internalNodes>
            0 -1 209 7.7851461246609688e-03</internalNodes>
          <leafValues>
            -5.7602126151323318e-02 2.1932551264762878e-01</leafValues></_>
        <_>
          <internalNodes>
            0 -1 186 -5.1912441849708557e-02</internalNodes>
          <leafValues>
            3.7796688079833984e-01 -3.0187934637069702e-02</leafValues></_>
        <_>
          <internalNodes>
            0 -1 256 -1.6592848114669323e-03</internalNodes>
          <leafValues>
            1.4854827523231506e-01 -7.4062682688236237e-02</leafValues></_>
        <_>
          <internalNodes>
            0 -1 224 7.2265774011611938e-02</internalNodes>
          <leafValues>
            -3.9118226617574692e-02 3.8490638136863708e-01</leafValues></_>
        <_>
          <internalNodes>
            0 -1 141 -2.1894318982958794e-02</internalNodes>
          <leafValues>
            -3.4567588567733765e-01 3.6065567284822464e-02</leafValues></_>
        <_>
          <internalNodes>
            0 -1 145 5.0530869513750076e-02</internalNodes>
          <leafValues>
            -6.1737112700939178e-02 2.0709222555160522e-01</leafValues></_>
        <_>
          <internalNodes>
            0 -1 0 -5.4386025294661522e-04</internalNodes>
          <leafValues>
            -1.7779622972011566e-01 7.6775416731834412e-02</leafValues></_>
        <_>
          <internalNodes>
            0 -1 96 5.3137082606554031e-02</internalNodes>
          <leafValues>
            -2.7793478220701218e-02 4.4626292586326599e-01</leafValues></_>
        <_>
          <internalNodes>
            0 -1 128 4.6402569860219955e-03</internalNodes>
          <leafValues>
            -3.0100760981440544e-02 3.8836467266082764e-01</leafValues></_>
        <_>
          <internalNodes>
            0 -1 255 -2.0771341398358345e-02</internalNodes>
          <leafValues>
            -4.7608846426010132e-01 2.5342896580696106e-02</leafValues></_>
        <_>
          <internalNodes>
            0 -1 240 -1.5761541435495019e-03</internalNodes>
          <leafValues>
            -2.3433309793472290e-01 4.7393415123224258e-02</leafValues></_>
        <_>
          <internalNodes>
            0 -1 60 1.0373847559094429e-02</internalNodes>
          <leafValues>
            -4.9019984900951385e-02 2.5063902139663696e-01</leafValues></_>
        <_>
          <internalNodes>
            0 -1 111 -1.1163863819092512e-03</internalNodes>
          <leafValues>
            1.3583327829837799e-01 -1.1259698867797852e-01</leafValues></_>
        <_>
          <internalNodes>
            0 -1 36 7.6395384967327118e-03</internalNodes>
          <leafValues>
            -7.4005767703056335e-02 1.4848026633262634e-01</leafValues></_>
        <_>
          <internalNodes>
            0 -1 114 -1.3409534096717834e-01</internalNodes>
          <leafValues>
            -1.3294567167758942e-01 8.0730207264423370e-02</leafValues></_>
        <_>
          <internalNodes>
            0 -1 80 -5.7685701176524162e-03</internalNodes>
          <leafValues>
            3.1443220376968384e-01 -3.8489077240228653e-02</leafValues></_>
        <_>
          <internalNodes>
            0 -1 204 5.2814288064837456e-03</internalNodes>
          <leafValues>
            -8.2477249205112457e-02 1.3472151756286621e-01</leafValues></_></weakClassifiers></_>
    <!-- stage 5 -->
    <_>
      <maxWeakCount>100</maxWeakCount>
      <stageThreshold>-1.0405871868133545e+00</stageThreshold>
      <weakClassifiers>
        <_>
          <internalNodes>
            0 -1 68 -4.2308971285820007e-01</internalNodes>
          <leafValues>
            -2.2142286598682404e-01 2.5958061218261719e-01</leafValues></_>
        <_>
          <internalNodes>
            0 -1 95 -1.1569185182452202e-02</internalNodes>
          <leafValues>
            2.9321160912513733e-01 -1.6138754785060883e-01</leafValues></_>
        <_>
          <internalNodes>
            0 -1 175 -9.7195245325565338e-02</internalNodes>
          <leafValues>
            3.2763758301734924e-01 -7.7611349523067474e-02</leafValues></_>
        <_>
          <internalNodes>
            0 -1 66 -1.3477930799126625e-02</internalNodes>
          <leafValues>
            -4.1880422830581665e-01 3.2947991043329239e-02</leafValues></_>
        <_>
          <internalNodes>
            0 -1 39 1.2250335887074471e-02</internalNodes>
          <leafValues>
            7.7601924538612366e-02 -3.8349601626396179e-01</leafValues></_>
        <_>
          <internalNodes>
            0 -1 277 -2.0152073353528976e-02</internalNodes>
          <leafValues>
            4.5033045113086700e-02 -5.7032191753387451e-01</leafValues></_>
        <_>
          <internalNodes>
            0 -1 110 2.0105339586734772e-02</internalNodes>
          <leafValues>
            4.8361375927925110e-02 -4.1603097319602966e-01</leafValues></_>
        <_>
          <internalNodes>
            0 -1 63 -3.7797473371028900e-02</internalNodes>
          <leafValues>
            -6.9879740476608276e-01 3.8113642483949661e-02</leafValues></_>
        <_>
          <internalNodes>
            0 -1 242 1.2060086010023952e-03</internalNodes>
          <leafValues>
            4.1927043348550797e-02 -2.6028153300285339e-01</leafValues></_>
        <_>
          <internalNodes>
            0 -1 228 -7.1284631267189980e-03</internalNodes>
          <leafValues>
            -3.7419131398200989e-01 5.1323633641004562e-02</leafValues></_>
        <_>
          <internalNodes>
            0 -1 13 -6.8843913078308105e-01</internalNodes>
          <leafValues>
            -5.2963268756866455e-01 3.0789447948336601e-02</leafValues></_>
        <_>
          <internalNodes>
            0 -1 10 -1.3094642199575901e-02</internalNodes>
          <leafValues>
            1.1978100985288620e-01 -1.4087411761283875e-01</leafValues></_>
        <_>
          <internalNodes>
            0 -1 237 -8.4140673279762268e-02</internalNodes>
          <leafValues>
            3.6889490485191345e-01 -7.7583946287631989e-02</leafValues></_>
        <_>
          <internalNodes>
            0 -1 0 1.5928086359053850e-03</internalNodes>
          <leafValues>
            7.6110020279884338e-02 -2.7597951889038086e-01</leafValues></_>
        <_>
          <internalNodes>
            0 -1 41 -1.1754726991057396e-02</internalNodes>
          <leafValues>
            2.7666766196489334e-02 -5.6400656700134277e-01</leafValues></_>
        <_>
          <internalNodes>
            0 -1 91 -3.4398016333580017e-01</internalNodes>
          <leafValues>
            -1.6848395764827728e-01 9.8035596311092377e-02</leafValues></_>
        <_>
          <internalNodes>
            0 -1 225 -4.9492798745632172e-02</internalNodes>
          <leafValues>
            4.9243608117103577e-01 -4.8229809850454330e-02</leafValues></_>
        <_>
          <internalNodes>
            0 -1 230 -4.5008480083197355e-04</internalNodes>
          <leafValues>
            2.5132214650511742e-02 -8.1917375326156616e-01</leafValues></_>
        <_>
          <internalNodes>
            0 -1 3 -5.0899330526590347e-03</internalNodes>
          <leafValues>
            -2.7369150519371033e-01 4.7791890799999237e-02</leafValues></_>
        <_>
          <internalNodes>
            0 -1 31 -2.9811237007379532e-02</internalNodes>
          <leafValues>
            -4.9131450057029724e-01 3.1685151159763336e-02</leafValues></_>
        <_>
          <internalNodes>
            0 -1 152 6.6939607262611389e-02</internalNodes>
          <leafValues>
            -5.9096645563840866e-02 2.7396699786186218e-01</leafValues></_>
        <_>
          <internalNodes>
            0 -1 153 -6.6473841667175293e-02</internalNodes>
          <leafValues>
            2.0496700704097748e-01 -8.8988736271858215e-02</leafValues></_>
        <_>
          <internalNodes>
            0 -1 20 -1.0720813646912575e-02</internalNodes>
          <leafValues>
            1.8623597919940948e-01 -7.3643192648887634e-02</leafValues></_>
        <_>
          <internalNodes>
            0 -1 148 -4.3975575827062130e-03</internalNodes>
          <leafValues>
            1.4205613732337952e-01 -9.7317628562450409e-02</leafValues></_>
        <_>
          <internalNodes>
            0 -1 203 8.7777420412749052e-04</internalNodes>
          <leafValues>
            6.9824486970901489e-02 -2.0220604538917542e-01</leafValues></_>
        <_>
          <internalNodes>
            0 -1 79 -9.5048509538173676e-03</internalNodes>
          <leafValues>
            1.3453367352485657e-01 -1.0349593311548233e-01</leafValues></_>
        <_>
          <internalNodes>
            0 -1 54 3.5562962293624878e-02</internalNodes>
          <leafValues>
            -3.8565456867218018e-02 2.8361731767654419e-01</leafValues></_>
        <_>
          <internalNodes>
            0 -1 1 -2.8040245175361633e-02</internalNodes>
          <leafValues>
            -6.2135505676269531e-01 1.6490951180458069e-02</leafValues></_>
        <_>
          <internalNodes>
            0 -1 127 5.1894817501306534e-02</internalNodes>
          <leafValues>
            -4.4874005019664764e-02 2.7290910482406616e-01</leafValues></_>
        <_>
          <internalNodes>
            0 -1 134 -1.7445456981658936e-01</internalNodes>
          <leafValues>
            3.1882166862487793e-01 -3.7564534693956375e-02</leafValues></_>
        <_>
          <internalNodes>
            0 -1 11 -2.4778865277767181e-02</internalNodes>
          <leafValues>
            -2.3052075505256653e-01 5.6779742240905762e-02</leafValues></_>
        <_>
          <internalNodes>
            0 -1 25 -6.1172258108854294e-02</internalNodes>
          <leafValues>
            1.9383421540260315e-01 -7.2718083858489990e-02</leafValues></_>
        <_>
          <internalNodes>
            0 -1 122 1.3358908705413342e-02</internalNodes>
          <leafValues>
            -4.0780179202556610e-02 3.4039336442947388e-01</leafValues></_>
        <_>
          <internalNodes>
            0 -1 254 9.5790065824985504e-03</internalNodes>
          <leafValues>
            -2.3367293179035187e-02 4.9936592578887939e-01</leafValues></_>
        <_>
          <internalNodes>
            0 -1 75 7.0971302688121796e-02</internalNodes>
          <leafValues>
            -7.0518121123313904e-02 1.7195643484592438e-01</leafValues></_>
        <_>
          <internalNodes>
            0 -1 131 -1.7064061015844345e-02</internalNodes>
          <leafValues>
            3.2211250066757202e-01 -3.8700010627508163e-02</leafValues></_>
        <_>
          <internalNodes>
            0 -1 69 -1.3641349971294403e-02</internalNodes>
          <leafValues>
            -2.3054572939872742e-01 5.1347337663173676e-02</leafValues></_>
        <_>
          <internalNodes>
            0 -1 244 2.5023759808391333e-03</internalNodes>
          <leafValues>
            3.8836598396301270e-02 -2.7616235613822937e-01</leafValues></_>
        <_>
          <internalNodes>
            0 -1 176 6.8691042251884937e-03</internalNodes>
          <leafValues>
            -3.7396851927042007e-02 3.0498856306076050e-01</leafValues></_>
        <_>
          <internalNodes>
            0 -1 34 -1.0917792096734047e-02</internalNodes>
          <leafValues>
            1.6409954056143761e-02 -7.4470913410186768e-01</leafValues></_>
        <_>
          <internalNodes>
            0 -1 266 4.0372278541326523e-02</internalNodes>
          <leafValues>
            -5.9722900390625000e-02 2.0897550880908966e-01</leafValues></_>
        <_>
          <internalNodes>
            0 -1 234 3.1309354305267334e-01</internalNodes>
          <leafValues>
            1.4580035582184792e-02 -7.9175549745559692e-01</leafValues></_>
        <_>
          <internalNodes>
            0 -1 2 1.2127462774515152e-02</internalNodes>
          <leafValues>
            3.9102230221033096e-02 -2.8452318906784058e-01</leafValues></_>
        <_>
          <internalNodes>
            0 -1 233 -7.9754712060093880e-03</internalNodes>
          <leafValues>
            -2.6038086414337158e-01 4.3398451060056686e-02</leafValues></_>
        <_>
          <internalNodes>
            0 -1 261 1.7413084860891104e-03</internalNodes>
          <leafValues>
            4.7481819987297058e-02 -2.4623171985149384e-01</leafValues></_>
        <_>
          <internalNodes>
            0 -1 246 7.7631231397390366e-04</internalNodes>
          <leafValues>
            -6.7987665534019470e-02 1.6516463458538055e-01</leafValues></_>
        <_>
          <internalNodes>
            0 -1 23 -1.2260865420103073e-02</internalNodes>
          <leafValues>
            -2.6071788743138313e-02 3.9020332694053650e-01</leafValues></_>
        <_>
          <internalNodes>
            0 -1 22 -5.5795293301343918e-03</internalNodes>
          <leafValues>
            1.6592664644122124e-02 -6.5490353107452393e-01</leafValues></_>
        <_>
          <internalNodes>
            0 -1 270 -1.4972380595281720e-03</internalNodes>
          <leafValues>
            1.2100253999233246e-01 -8.4416277706623077e-02</leafValues></_>
        <_>
          <internalNodes>
            0 -1 169 4.8506602644920349e-02</internalNodes>
          <leafValues>
            -4.4921159744262695e-02 2.3693700134754181e-01</leafValues></_>
        <_>
          <internalNodes>
            0 -1 200 -2.3099295794963837e-02</internalNodes>
          <leafValues>
            -4.3173187971115112e-01 2.5768630206584930e-02</leafValues></_>
        <_>
          <internalNodes>
            0 -1 285 1.2289056554436684e-02</internalNodes>
          <leafValues>
            -2.8520744293928146e-02 3.8255235552787781e-01</leafValues></_>
        <_>
          <internalNodes>
            0 -1 216 -2.0191706717014313e-03</internalNodes>
          <leafValues>
            -2.5481739640235901e-01 4.3850984424352646e-02</leafValues></_>
        <_>
          <internalNodes>
            0 -1 19 -9.0088294818997383e-03</internalNodes>
          <leafValues>
            -3.2096403837203979e-01 3.3042866736650467e-02</leafValues></_>
        <_>
          <internalNodes>
            0 -1 90 1.9088040571659803e-03</internalNodes>
          <leafValues>
            3.8735877722501755e-02 -2.5355789065361023e-01</leafValues></_>
        <_>
          <internalNodes>
            0 -1 100 6.7887920886278152e-03</internalNodes>
          <leafValues>
            -4.9185179173946381e-02 2.1912680566310883e-01</leafValues></_>
        <_>
          <internalNodes>
            0 -1 7 -2.4232566356658936e-02</internalNodes>
          <leafValues>
            -2.3400753736495972e-01 4.5882642269134521e-02</leafValues></_>
        <_>
          <internalNodes>
            0 -1 179 -1.4839130640029907e-01</internalNodes>
          <leafValues>
            -7.6504327356815338e-02 1.3673651218414307e-01</leafValues></_>
        <_>
          <internalNodes>
            0 -1 59 -2.6131808757781982e-01</internalNodes>
          <leafValues>
            4.3507408350706100e-02 -3.0220624804496765e-01</leafValues></_>
        <_>
          <internalNodes>
            0 -1 192 -1.2014055624604225e-02</internalNodes>
          <leafValues>
            3.2995274662971497e-01 -3.2326601445674896e-02</leafValues></_>
        <_>
          <internalNodes>
            0 -1 253 1.2221597135066986e-03</internalNodes>
          <leafValues>
            5.5119760334491730e-02 -2.0869272947311401e-01</leafValues></_>
        <_>
          <internalNodes>
            0 -1 217 4.6820924035273492e-04</internalNodes>
          <leafValues>
            6.8511277437210083e-02 -1.3950565457344055e-01</leafValues></_>
        <_>
          <internalNodes>
            0 -1 102 2.5792092084884644e-02</internalNodes>
          <leafValues>
            -4.9447581171989441e-02 2.1051485836505890e-01</leafValues></_>
        <_>
          <internalNodes>
            0 -1 48 6.6023143008351326e-03</internalNodes>
          <leafValues>
            -5.6886669248342514e-02 1.7652486264705658e-01</leafValues></_>
        <_>
          <internalNodes>
            0 -1 231 2.5115017779171467e-03</internalNodes>
          <leafValues>
            3.5108745098114014e-02 -2.9299795627593994e-01</leafValues></_>
        <_>
          <internalNodes>
            0 -1 212 -9.1102430596947670e-03</internalNodes>
          <leafValues>
            2.7256885170936584e-01 -4.1025795042514801e-02</leafValues></_>
        <_>
          <internalNodes>
            0 -1 177 2.5610867887735367e-02</internalNodes>
          <leafValues>
            -4.2219527065753937e-02 2.3995259404182434e-01</leafValues></_>
        <_>
          <internalNodes>
            0 -1 248 -3.6452054046094418e-03</internalNodes>
          <leafValues>
            1.3466641306877136e-01 -8.8060580193996429e-02</leafValues></_>
        <_>
          <internalNodes>
            0 -1 284 -4.3759349733591080e-02</internalNodes>
          <leafValues>
            -6.4562994241714478e-01 1.5048994682729244e-02</leafValues></_>
        <_>
          <internalNodes>
            0 -1 249 8.6611807346343994e-03</internalNodes>
          <leafValues>
            -2.6797359809279442e-02 4.1179186105728149e-01</leafValues></_>
        <_>
          <internalNodes>
            0 -1 135 -9.7905034199357033e-03</internalNodes>
          <leafValues>
            -2.2052894532680511e-01 4.7353882342576981e-02</leafValues></_>
        <_>
          <internalNodes>
            0 -1 214 2.1674908930435777e-04</internalNodes>
          <leafValues>
            9.5247261226177216e-02 -1.4137370884418488e-01</leafValues></_>
        <_>
          <internalNodes>
            0 -1 164 -1.1002887785434723e-01</internalNodes>
          <leafValues>
            -4.5759657025337219e-01 2.2269412875175476e-02</leafValues></_>
        <_>
          <internalNodes>
            0 -1 119 2.8070681728422642e-03</internalNodes>
          <leafValues>
            3.0617402866482735e-02 -3.1684631109237671e-01</leafValues></_>
        <_>
          <internalNodes>
            0 -1 181 3.6060389131307602e-02</internalNodes>
          <leafValues>
            -1.7605422064661980e-02 6.6305869817733765e-01</leafValues></_>
        <_>
          <internalNodes>
            0 -1 71 2.6194429956376553e-03</internalNodes>
          <leafValues>
            3.3202748745679855e-02 -3.0476295948028564e-01</leafValues></_>
        <_>
          <internalNodes>
            0 -1 38 3.7843519821763039e-03</internalNodes>
          <leafValues>
            -2.7925841510295868e-02 3.4073540568351746e-01</leafValues></_>
        <_>
          <internalNodes>
            0 -1 37 3.6230735480785370e-02</internalNodes>
          <leafValues>
            2.1322630345821381e-02 -4.5304617285728455e-01</leafValues></_>
        <_>
          <internalNodes>
            0 -1 133 -7.0775300264358521e-03</internalNodes>
          <leafValues>
            1.5364933013916016e-01 -5.9678323566913605e-02</leafValues></_>
        <_>
          <internalNodes>
            0 -1 231 -5.1918420940637589e-03</internalNodes>
          <leafValues>
            -5.1581913232803345e-01 1.8473109230399132e-02</leafValues></_>
        <_>
          <internalNodes>
            0 -1 182 6.2373350374400616e-04</internalNodes>
          <leafValues>
            6.4355820417404175e-02 -1.5115082263946533e-01</leafValues></_>
        <_>
          <internalNodes>
            0 -1 8 6.5551742911338806e-02</internalNodes>
          <leafValues>
            -5.5971633642911911e-02 1.8110634386539459e-01</leafValues></_>
        <_>
          <internalNodes>
            0 -1 142 2.1165935322642326e-02</internalNodes>
          <leafValues>
            -2.9540995135903358e-02 3.3117288351058960e-01</leafValues></_>
        <_>
          <internalNodes>
            0 -1 235 4.8511300235986710e-02</internalNodes>
          <leafValues>
            -2.7106363326311111e-02 3.5292348265647888e-01</leafValues></_>
        <_>
          <internalNodes>
            0 -1 98 3.8311523199081421e-01</internalNodes>
          <leafValues>
            2.1310178562998772e-02 -5.0359368324279785e-01</leafValues></_>
        <_>
          <internalNodes>
            0 -1 251 1.8655465915799141e-02</internalNodes>
          <leafValues>
            -4.1499111801385880e-02 2.4581825733184814e-01</leafValues></_>
        <_>
          <internalNodes>
            0 -1 252 -4.5974757522344589e-03</internalNodes>
          <leafValues>
            1.4039927721023560e-01 -8.8505774736404419e-02</leafValues></_>
        <_>
          <internalNodes>
            0 -1 180 4.9998760223388672e-03</internalNodes>
          <leafValues>
            -1.0248280316591263e-01 1.1298198252916336e-01</leafValues></_>
        <_>
          <internalNodes>
            0 -1 215 -1.0608445154502988e-03</internalNodes>
          <leafValues>
            1.3650771975517273e-01 -8.2036219537258148e-02</leafValues></_>
        <_>
          <internalNodes>
            0 -1 201 -5.2186131477355957e-02</internalNodes>
          <leafValues>
            -6.1584901064634323e-02 1.7200449109077454e-01</leafValues></_>
        <_>
          <internalNodes>
            0 -1 241 -2.2810202091932297e-02</internalNodes>
          <leafValues>
            -7.4492162466049194e-01 1.2493487447500229e-02</leafValues></_>
        <_>
          <internalNodes>
            0 -1 43 -1.2777486443519592e-01</internalNodes>
          <leafValues>
            3.1250379979610443e-02 -3.0660533905029297e-01</leafValues></_>
        <_>
          <internalNodes>
            0 -1 167 4.1252965456806123e-04</internalNodes>
          <leafValues>
            7.0298247039318085e-02 -1.4078861474990845e-01</leafValues></_>
        <_>
          <internalNodes>
            0 -1 165 -9.6335068345069885e-02</internalNodes>
          <leafValues>
            2.3796808719635010e-01 -4.0287174284458160e-02</leafValues></_>
        <_>
          <internalNodes>
            0 -1 156 1.5889849513769150e-02</internalNodes>
          <leafValues>
            -2.8183000162243843e-02 3.1490996479988098e-01</leafValues></_>
        <_>
          <internalNodes>
            0 -1 14 -2.5101017951965332e-01</internalNodes>
          <leafValues>
            -1.6216617077589035e-02 5.1857310533523560e-01</leafValues></_>
        <_>
          <internalNodes>
            0 -1 281 -3.6764929536730051e-03</internalNodes>
          <leafValues>
            1.5151804313063622e-02 -6.1054754257202148e-01</leafValues></_>
        <_>
          <internalNodes>
            0 -1 83 4.9464120529592037e-03</internalNodes>
          <leafValues>
            -8.5342355072498322e-02 1.0229963064193726e-01</leafValues></_>
        <_>
          <internalNodes>
            0 -1 65 1.3399736955761909e-02</internalNodes>
          <leafValues>
            4.4706139713525772e-02 -2.0771907269954681e-01</leafValues></_>
        <_>
          <internalNodes>
            0 -1 146 -2.6589187327772379e-03</internalNodes>
          <leafValues>
            2.5760695338249207e-01 -3.3715810626745224e-02</leafValues></_></weakClassifiers></_></stages>
  <features>
    <_>
      <rects>
        <_>
          0 0 2 1 -1.</_>
        <_>
          1 0 1 1 2.</_></rects>
      <tilted>0</tilted></_>
    <_>
      <rects>
        <_>
          0 0 1 3 -1.</_>
        <_>
          0 1 1 1 2.</_></rects>
      <tilted>0</tilted></_>
    <_>
      <rects>
        <_>
          0 0 1 6 -1.</_>
        <_>
          0 3 1 3 2.</_></rects>
      <tilted>0</tilted></_>
    <_>
      <rects>
        <_>
          0 0 4 1 -1.</_>
        <_>
          2 0 2 1 2.</_></rects>
      <tilted>0</tilted></_>
    <_>
      <rects>
        <_>
          0 0 3 10 -1.</_>
        <_>
          0 5 3 5 2.</_></rects>
      <tilted>0</tilted></_>
    <_>
      <rects>
        <_>
          0 0 6 14 -1.</_>
        <_>
          3 0 3 14 2.</_></rects>
      <tilted>0</tilted></_>
    <_>
      <rects>
        <_>
          0 0 8 6 -1.</_>
        <_>
          0 0 4 3 2.</_>
        <_>
          4 3 4 3 2.</_></rects>
      <tilted>0</tilted></_>
    <_>
      <rects>
        <_>
          0 0 12 1 -1.</_>
        <_>
          6 0 6 1 2.</_></rects>
      <tilted>0</tilted></_>
    <_>
      <rects>
        <_>
          0 0 12 8 -1.</_>
        <_>
          0 0 6 4 2.</_>
        <_>
          6 4 6 4 2.</_></rects>
      <tilted>0</tilted></_>
    <_>
      <rects>
        <_>
          0 0 14 1 -1.</_>
        <_>
          7 0 7 1 2.</_></rects>
      <tilted>0</tilted></_>
    <_>
      <rects>
        <_>
          0 0 14 8 -1.</_>
        <_>
          7 0 7 8 2.</_></rects>
      <tilted>0</tilted></_>
    <_>
      <rects>
        <_>
          0 0 16 1 -1.</_>
        <_>
          8 0 8 1 2.</_></rects>
      <tilted>0</tilted></_>
    <_>
      <rects>
        <_>
          0 0 16 13 -1.</_>
        <_>
          8 0 8 13 2.</_></rects>
      <tilted>0</tilted></_>
    <_>
      <rects>
        <_>
          0 0 16 17 -1.</_>
        <_>
          8 0 8 17 2.</_></rects>
      <tilted>0</tilted></_>
    <_>
      <rects>
        <_>
          0 1 15 16 -1.</_>
        <_>
          5 1 5 16 2.</_></rects>
      <tilted>0</tilted></_>
    <_>
      <rects>
        <_>
          0 1 16 3 -1.</_>
        <_>
          8 1 8 3 2.</_></rects>
      <tilted>0</tilted></_>
    <_>
      <rects>
        <_>
          0 1 11 16 -1.</_>
        <_>
          0 9 11 8 2.</_></rects>
      <tilted>0</tilted></_>
    <_>
      <rects>
        <_>
          0 1 17 16 -1.</_>
        <_>
          0 9 17 8 2.</_></rects>
      <tilted>0</tilted></_>
    <_>
      <rects>
        <_>
          0 2 2 2 -1.</_>
        <_>
          1 2 1 2 2.</_></rects>
      <tilted>0</tilted></_>
    <_>
      <rects>
        <_>
          0 2 1 4 -1.</_>
        <_>
          0 4 1 2 2.</_></rects>
      <tilted>0</tilted></_>
    <_>
      <rects>
        <_>
          0 2 2 15 -1.</_>
        <_>
          1 2 1 15 2.</_></rects>
      <tilted>0</tilted></_>
    <_>
      <rects>
        <_>
          0 2 4 15 -1.</_>
        <_>
          2 2 2 15 2.</_></rects>
      <tilted>0</tilted></_>
    <_>
      <rects>
        <_>
          0 3 2 12 -1.</_>
        <_>
          0 7 2 4 2.</_></rects>
      <tilted>0</tilted></_>
    <_>
      <rects>
        <_>
          0 3 15 1 -1.</_>
        <_>
          5 3 5 1 2.</_></rects>
      <tilted>0</tilted></_>
    <_>
      <rects>
        <_>
          0 5 2 3 -1.</_>
        <_>
          0 6 2 1 2.</_></rects>
      <tilted>0</tilted></_>
    <_>
      <rects>
        <_>
          0 5 6 10 -1.</_>
        <_>
          3 5 3 10 2.</_></rects>
      <tilted>0</tilted></_>
    <_>
      <rects>
        <_>
          0 5 4 12 -1.</_>
        <_>
          0 11 4 6 2.</_></rects>
      <tilted>0</tilted></_>
    <_>
      <rects>
        <_>
          0 6 2 8 -1.</_>
        <_>
          1 6 1 8 2.</_></rects>
      <tilted>0</tilted></_>
    <_>
      <rects>
        <_>
          0 6 6 4 -1.</_>
        <_>
          3 6 3 4 2.</_></rects>
      <tilted>0</tilted></_>
    <_>
      <rects>
        <_>
          0 6 10 10 -1.</_>
        <_>
          0 6 5 5 2.</_>
        <_>
          5 11 5 5 2.</_></rects>
      <tilted>0</tilted></_>
    <_>
      <rects>
        <_>
          0 6 6 2 -1.</_>
        <_>
          0 7 6 1 2.</_></rects>
      <tilted>0</tilted></_>
    <_>
      <rects>
        <_>
          0 7 14 2 -1.</_>
        <_>
          0 8 14 1 2.</_></rects>
      <tilted>0</tilted></_>
    <_>
      <rects>
        <_>
          0 7 17 3 -1.</_>
        <_>
          0 8 17 1 2.</_></rects>
      <tilted>0</tilted></_>
    <_>
      <rects>
        <_>
          0 8 4 4 -1.</_>
        <_>
          2 8 2 4 2.</_></rects>
      <tilted>0</tilted></_>
    <_>
      <rects>
        <_>
          0 8 4 9 -1.</_>
        <_>
          0 11 4 3 2.</_></rects>
      <tilted>0</tilted></_>
    <_>
      <rects>
        <_>
          0 8 7 2 -1.</_>
        <_>
          0 9 7 1 2.</_></rects>
      <tilted>0</tilted></_>
    <_>
      <rects>
        <_>
          0 8 8 4 -1.</_>
        <_>
          0 10 8 2 2.</_></rects>
      <tilted>0</tilted></_>
    <_>
      <rects>
        <_>
          0 8 17 2 -1.</_>
        <_>
          0 9 17 1 2.</_></rects>
      <tilted>0</tilted></_>
    <_>
      <rects>
        <_>
          0 9 2 1 -1.</_>
        <_>
          1 9 1 1 2.</_></rects>
      <tilted>0</tilted></_>
    <_>
      <rects>
        <_>
          0 9 11 2 -1.</_>
        <_>
          0 10 11 1 2.</_></rects>
      <tilted>0</tilted></_>
    <_>
      <rects>
        <_>
          0 9 16 2 -1.</_>
        <_>
          0 10 16 1 2.</_></rects>
      <tilted>0</tilted></_>
    <_>
      <rects>
        <_>
          0 11 5 3 -1.</_>
        <_>
          0 12 5 1 2.</_></rects>
      <tilted>0</tilted></_>
    <_>
      <rects>
        <_>
          0 11 6 3 -1.</_>
        <_>
          0 12 6 1 2.</_></rects>
      <tilted>0</tilted></_>
    <_>
      <rects>
        <_>
          0 11 13 6 -1.</_>
        <_>
          0 13 13 2 2.</_></rects>
      <tilted>0</tilted></_>
    <_>
      <rects>
        <_>
          0 12 3 1 -1.</_>
        <_>
          1 12 1 1 2.</_></rects>
      <tilted>0</tilted></_>
    <_>
      <rects>
        <_>
          0 13 2 4 -1.</_>
        <_>
          0 15 2 2 2.</_></rects>
      <tilted>0</tilted></_>
    <_>
      <rects>
        <_>
          0 14 13 3 -1.</_>
        <_>
          0 15 13 1 2.</_></rects>
      <tilted>0</tilted></_>
    <_>
      <rects>
        <_>
          0 15 5 2 -1.</_>
        <_>
          0 16 5 1 2.</_></rects>
      <tilted>0</tilted></_>
    <_>
      <rects>
        <_>
          1 0 2 12 -1.</_>
        <_>
          1 0 1 6 2.</_>
        <_>
          2 6 1 6 2.</_></rects>
      <tilted>0</tilted></_>
    <_>
      <rects>
        <_>
          1 0 8 8 -1.</_>
        <_>
          1 0 4 4 2.</_>
        <_>
          5 4 4 4 2.</_></rects>
      <tilted>0</tilted></_>
    <_>
      <rects>
        <_>
          1 0 16 1 -1.</_>
        <_>
          9 0 8 1 2.</_></rects>
      <tilted>0</tilted></_>
    <_>
      <rects>
        <_>
          1 0 16 2 -1.</_>
        <_>
          9 0 8 2 2.</_></rects>
      <tilted>0</tilted></_>
    <_>
      <rects>
        <_>
          1 0 16 8 -1.</_>
        <_>
          9 0 8 8 2.</_></rects>
      <tilted>0</tilted></_>
    <_>
      <rects>
        <_>
          1 1 2 12 -1.</_>
        <_>
          1 1 1 6 2.</_>
        <_>
          2 7 1 6 2.</_></rects>
      <tilted>0</tilted></_>
    <_>
      <rects>
        <_>
          1 1 4 10 -1.</_>
        <_>
          1 1 2 5 2.</_>
        <_>
          3 6 2 5 2.</_></rects>
      <tilted>0</tilted></_>
    <_>
      <rects>
        <_>
          1 1 8 2 -1.</_>
        <_>
          1 1 4 1 2.</_>
        <_>
          5 2 4 1 2.</_></rects>
      <tilted>0</tilted></_>
    <_>
      <rects>
        <_>
          1 1 8 8 -1.</_>
        <_>
          1 1 4 4 2.</_>
        <_>
          5 5 4 4 2.</_></rects>
      <tilted>0</tilted></_>
    <_>
      <rects>
        <_>
          1 1 10 12 -1.</_>
        <_>
          1 1 5 6 2.</_>
        <_>
          6 7 5 6 2.</_></rects>
      <tilted>0</tilted></_>
    <_>
      <rects>
        <_>
          1 2 15 3 -1.</_>
        <_>
          1 3 15 1 2.</_></rects>
      <tilted>0</tilted></_>
    <_>
      <rects>
        <_>
          1 4 15 9 -1.</_>
        <_>
          1 7 15 3 2.</_></rects>
      <tilted>0</tilted></_>
    <_>
      <rects>
        <_>
          1 5 2 10 -1.</_>
        <_>
          1 5 1 5 2.</_>
        <_>
          2 10 1 5 2.</_></rects>
      <tilted>0</tilted></_>
    <_>
      <rects>
        <_>
          1 6 4 4 -1.</_>
        <_>
          3 6 2 4 2.</_></rects>
      <tilted>0</tilted></_>
    <_>
      <rects>
        <_>
          1 6 4 8 -1.</_>
        <_>
          3 6 2 8 2.</_></rects>
      <tilted>0</tilted></_>
    <_>
      <rects>
        <_>
          1 6 14 2 -1.</_>
        <_>
          1 7 14 1 2.</_></rects>
      <tilted>0</tilted></_>
    <_>
      <rects>
        <_>
          1 8 3 8 -1.</_>
        <_>
          2 8 1 8 2.</_></rects>
      <tilted>0</tilted></_>
    <_>
      <rects>
        <_>
          1 8 16 2 -1.</_>
        <_>
          1 8 8 1 2.</_>
        <_>
          9 9 8 1 2.</_></rects>
      <tilted>0</tilted></_>
    <_>
      <rects>
        <_>
          1 9 11 2 -1.</_>
        <_>
          1 10 11 1 2.</_></rects>
      <tilted>0</tilted></_>
    <_>
      <rects>
        <_>
          1 10 4 2 -1.</_>
        <_>
          3 10 2 2 2.</_></rects>
      <tilted>0</tilted></_>
    <_>
      <rects>
        <_>
          1 10 16 6 -1.</_>
        <_>
          1 12 16 2 2.</_></rects>
      <tilted>0</tilted></_>
    <_>
      <rects>
        <_>
          1 12 16 2 -1.</_>
        <_>
          1 12 8 1 2.</_>
        <_>
          9 13 8 1 2.</_></rects>
      <tilted>0</tilted></_>
    <_>
      <rects>
        <_>
          1 13 6 1 -1.</_>
        <_>
          4 13 3 1 2.</_></rects>
      <tilted>0</tilted></_>
    <_>
      <rects>
        <_>
          1 16 2 1 -1.</_>
        <_>
          2 16 1 1 2.</_></rects>
      <tilted>0</tilted></_>
    <_>
      <rects>
        <_>
          1 16 16 1 -1.</_>
        <_>
          9 16 8 1 2.</_></rects>
      <tilted>0</tilted></_>
    <_>
      <rects>
        <_>
          2 0 2 2 -1.</_>
        <_>
          3 0 1 2 2.</_></rects>
      <tilted>0</tilted></_>
    <_>
      <rects>
        <_>
          2 0 8 1 -1.</_>
        <_>
          6 0 4 1 2.</_></rects>
      <tilted>0</tilted></_>
    <_>
      <rects>
        <_>
          2 0 10 12 -1.</_>
        <_>
          2 0 5 6 2.</_>
        <_>
          7 6 5 6 2.</_></rects>
      <tilted>0</tilted></_>
    <_>
      <rects>
        <_>
          2 2 10 2 -1.</_>
        <_>
          2 3 10 1 2.</_></rects>
      <tilted>0</tilted></_>
    <_>
      <rects>
        <_>
          2 2 13 3 -1.</_>
        <_>
          2 3 13 1 2.</_></rects>
      <tilted>0</tilted></_>
    <_>
      <rects>
        <_>
          2 4 6 8 -1.</_>
        <_>
          2 4 3 4 2.</_>
        <_>
          5 8 3 4 2.</_></rects>
      <tilted>0</tilted></_>
    <_>
      <rects>
        <_>
          2 5 4 6 -1.</_>
        <_>
          2 8 4 3 2.</_></rects>
      <tilted>0</tilted></_>
    <_>
      <rects>
        <_>
          2 6 2 4 -1.</_>
        <_>
          2 6 1 2 2.</_>
        <_>
          3 8 1 2 2.</_></rects>
      <tilted>0</tilted></_>
    <_>
      <rects>
        <_>
          2 6 4 5 -1.</_>
        <_>
          4 6 2 5 2.</_></rects>
      <tilted>0</tilted></_>
    <_>
      <rects>
        <_>
          2 7 4 10 -1.</_>
        <_>
          2 7 2 5 2.</_>
        <_>
          4 12 2 5 2.</_></rects>
      <tilted>0</tilted></_>
    <_>
      <rects>
        <_>
          2 7 14 4 -1.</_>
        <_>
          2 7 7 2 2.</_>
        <_>
          9 9 7 2 2.</_></rects>
      <tilted>0</tilted></_>
    <_>
      <rects>
        <_>
          2 8 4 6 -1.</_>
        <_>
          4 8 2 6 2.</_></rects>
      <tilted>0</tilted></_>
    <_>
      <rects>
        <_>
          2 8 4 7 -1.</_>
        <_>
          4 8 2 7 2.</_></rects>
      <tilted>0</tilted></_>
    <_>
      <rects>
        <_>
          2 8 5 9 -1.</_>
        <_>
          2 11 5 3 2.</_></rects>
      <tilted>0</tilted></_>
    <_>
      <rects>
        <_>
          2 11 8 2 -1.</_>
        <_>
          2 11 4 1 2.</_>
        <_>
          6 12 4 1 2.</_></rects>
      <tilted>0</tilted></_>
    <_>
      <rects>
        <_>
          2 12 7 3 -1.</_>
        <_>
          2 13 7 1 2.</_></rects>
      <tilted>0</tilted></_>
    <_>
      <rects>
        <_>
          2 15 14 2 -1.</_>
        <_>
          2 16 14 1 2.</_></rects>
      <tilted>0</tilted></_>
    <_>
      <rects>
        <_>
          3 0 2 1 -1.</_>
        <_>
          4 0 1 1 2.</_></rects>
      <tilted>0</tilted></_>
    <_>
      <rects>
        <_>
          3 0 6 15 -1.</_>
        <_>
          5 0 2 15 2.</_></rects>
      <tilted>0</tilted></_>
    <_>
      <rects>
        <_>
          3 0 3 2 -1.</_>
        <_>
          3 1 3 1 2.</_></rects>
      <tilted>0</tilted></_>
    <_>
      <rects>
        <_>
          3 0 8 4 -1.</_>
        <_>
          3 0 4 2 2.</_>
        <_>
          7 2 4 2 2.</_></rects>
      <tilted>0</tilted></_>
    <_>
      <rects>
        <_>
          3 0 9 2 -1.</_>
        <_>
          3 1 9 1 2.</_></rects>
      <tilted>0</tilted></_>
    <_>
      <rects>
        <_>
          3 0 10 2 -1.</_>
        <_>
          3 1 10 1 2.</_></rects>
      <tilted>0</tilted></_>
    <_>
      <rects>
        <_>
          3 1 6 6 -1.</_>
        <_>
          3 1 3 3 2.</_>
        <_>
          6 4 3 3 2.</_></rects>
      <tilted>0</tilted></_>
    <_>
      <rects>
        <_>
          3 1 12 6 -1.</_>
        <_>
          3 1 6 3 2.</_>
        <_>
          9 4 6 3 2.</_></rects>
      <tilted>0</tilted></_>
    <_>
      <rects>
        <_>
          3 1 10 14 -1.</_>
        <_>
          3 8 10 7 2.</_></rects>
      <tilted>0</tilted></_>
    <_>
      <rects>
        <_>
          3 2 4 10 -1.</_>
        <_>
          5 2 2 10 2.</_></rects>
      <tilted>0</tilted></_>
    <_>
      <rects>
        <_>
          3 2 6 2 -1.</_>
        <_>
          3 2 3 1 2.</_>
        <_>
          6 3 3 1 2.</_></rects>
      <tilted>0</tilted></_>
    <_>
      <rects>
        <_>
          3 2 10 2 -1.</_>
        <_>
          3 2 5 1 2.</_>
        <_>
          8 3 5 1 2.</_></rects>
      <tilted>0</tilted></_>
    <_>
      <rects>
        <_>
          3 3 4 8 -1.</_>
        <_>
          3 3 2 4 2.</_>
        <_>
          5 7 2 4 2.</_></rects>
      <tilted>0</tilted></_>
    <_>
      <rects>
        <_>
          3 3 4 2 -1.</_>
        <_>
          3 4 4 1 2.</_></rects>
      <tilted>0</tilted></_>
    <_>
      <rects>
        <_>
          3 3 8 2 -1.</_>
        <_>
          3 3 4 1 2.</_>
        <_>
          7 4 4 1 2.</_></rects>
      <tilted>0</tilted></_>
    <_>
      <rects>
        <_>
          3 5 8 6 -1.</_>
        <_>
          7 5 4 6 2.</_></rects>
      <tilted>0</tilted></_>
    <_>
      <rects>
        <_>
          3 5 12 2 -1.</_>
        <_>
          3 6 12 1 2.</_></rects>
      <tilted>0</tilted></_>
    <_>
      <rects>
        <_>
          3 6 2 11 -1.</_>
        <_>
          4 6 1 11 2.</_></rects>
      <tilted>0</tilted></_>
    <_>
      <rects>
        <_>
          3 6 4 4 -1.</_>
        <_>
          5 6 2 4 2.</_></rects>
      <tilted>0</tilted></_>
    <_>
      <rects>
        <_>
          3 6 4 10 -1.</_>
        <_>
          3 6 2 5 2.</_>
        <_>
          5 11 2 5 2.</_></rects>
      <tilted>0</tilted></_>
    <_>
      <rects>
        <_>
          3 6 12 2 -1.</_>
        <_>
          3 7 12 1 2.</_></rects>
      <tilted>0</tilted></_>
    <_>
      <rects>
        <_>
          3 8 2 4 -1.</_>
        <_>
          3 10 2 2 2.</_></rects>
      <tilted>0</tilted></_>
    <_>
      <rects>
        <_>
          3 8 11 9 -1.</_>
        <_>
          3 11 11 3 2.</_></rects>
      <tilted>0</tilted></_>
    <_>
      <rects>
        <_>
          3 11 4 2 -1.</_>
        <_>
          3 12 4 1 2.</_></rects>
      <tilted>0</tilted></_>
    <_>
      <rects>
        <_>
          3 12 11 3 -1.</_>
        <_>
          3 13 11 1 2.</_></rects>
      <tilted>0</tilted></_>
    <_>
      <rects>
        <_>
          3 12 12 2 -1.</_>
        <_>
          3 13 12 1 2.</_></rects>
      <tilted>0</tilted></_>
    <_>
      <rects>
        <_>
          3 14 4 2 -1.</_>
        <_>
          3 14 2 1 2.</_>
        <_>
          5 15 2 1 2.</_></rects>
      <tilted>0</tilted></_>
    <_>
      <rects>
        <_>
          3 15 2 2 -1.</_>
        <_>
          3 16 2 1 2.</_></rects>
      <tilted>0</tilted></_>
    <_>
      <rects>
        <_>
          3 15 8 2 -1.</_>
        <_>
          3 16 8 1 2.</_></rects>
      <tilted>0</tilted></_>
    <_>
      <rects>
        <_>
          3 16 2 1 -1.</_>
        <_>
          4 16 1 1 2.</_></rects>
      <tilted>0</tilted></_>
    <_>
      <rects>
        <_>
          4 0 3 2 -1.</_>
        <_>
          5 0 1 2 2.</_></rects>
      <tilted>0</tilted></_>
    <_>
      <rects>
        <_>
          4 0 4 1 -1.</_>
        <_>
          6 0 2 1 2.</_></rects>
      <tilted>0</tilted></_>
    <_>
      <rects>
        <_>
          4 0 8 2 -1.</_>
        <_>
          4 0 4 1 2.</_>
        <_>
          8 1 4 1 2.</_></rects>
      <tilted>0</tilted></_>
    <_>
      <rects>
        <_>
          4 0 10 2 -1.</_>
        <_>
          4 1 10 1 2.</_></rects>
      <tilted>0</tilted></_>
    <_>
      <rects>
        <_>
          4 1 3 14 -1.</_>
        <_>
          5 1 1 14 2.</_></rects>
      <tilted>0</tilted></_>
    <_>
      <rects>
        <_>
          4 1 6 6 -1.</_>
        <_>
          4 1 3 3 2.</_>
        <_>
          7 4 3 3 2.</_></rects>
      <tilted>0</tilted></_>
    <_>
      <rects>
        <_>
          4 1 8 2 -1.</_>
        <_>
          4 1 4 1 2.</_>
        <_>
          8 2 4 1 2.</_></rects>
      <tilted>0</tilted></_>
    <_>
      <rects>
        <_>
          4 1 8 6 -1.</_>
        <_>
          4 1 4 3 2.</_>
        <_>
          8 4 4 3 2.</_></rects>
      <tilted>0</tilted></_>
    <_>
      <rects>
        <_>
          4 2 1 2 -1.</_>
        <_>
          4 3 1 1 2.</_></rects>
      <tilted>0</tilted></_>
    <_>
      <rects>
        <_>
          4 2 4 4 -1.</_>
        <_>
          4 2 2 2 2.</_>
        <_>
          6 4 2 2 2.</_></rects>
      <tilted>0</tilted></_>
    <_>
      <rects>
        <_>
          4 2 4 6 -1.</_>
        <_>
          4 2 2 3 2.</_>
        <_>
          6 5 2 3 2.</_></rects>
      <tilted>0</tilted></_>
    <_>
      <rects>
        <_>
          4 3 2 12 -1.</_>
        <_>
          4 3 1 6 2.</_>
        <_>
          5 9 1 6 2.</_></rects>
      <tilted>0</tilted></_>
    <_>
      <rects>
        <_>
          4 3 6 2 -1.</_>
        <_>
          4 4 6 1 2.</_></rects>
      <tilted>0</tilted></_>
    <_>
      <rects>
        <_>
          4 4 2 4 -1.</_>
        <_>
          4 6 2 2 2.</_></rects>
      <tilted>0</tilted></_>
    <_>
      <rects>
        <_>
          4 4 8 12 -1.</_>
        <_>
          8 4 4 12 2.</_></rects>
      <tilted>0</tilted></_>
    <_>
      <rects>
        <_>
          4 7 8 2 -1.</_>
        <_>
          4 8 8 1 2.</_></rects>
      <tilted>0</tilted></_>
    <_>
      <rects>
        <_>
          4 10 12 1 -1.</_>
        <_>
          8 10 4 1 2.</_></rects>
      <tilted>0</tilted></_>
    <_>
      <rects>
        <_>
          4 10 11 2 -1.</_>
        <_>
          4 11 11 1 2.</_></rects>
      <tilted>0</tilted></_>
    <_>
      <rects>
        <_>
          4 11 13 6 -1.</_>
        <_>
          4 14 13 3 2.</_></rects>
      <tilted>0</tilted></_>
    <_>
      <rects>
        <_>
          4 14 7 2 -1.</_>
        <_>
          4 15 7 1 2.</_></rects>
      <tilted>0</tilted></_>
    <_>
      <rects>
        <_>
          4 15 5 2 -1.</_>
        <_>
          4 16 5 1 2.</_></rects>
      <tilted>0</tilted></_>
    <_>
      <rects>
        <_>
          5 0 3 1 -1.</_>
        <_>
          6 0 1 1 2.</_></rects>
      <tilted>0</tilted></_>
    <_>
      <rects>
        <_>
          5 0 10 2 -1.</_>
        <_>
          5 0 5 1 2.</_>
        <_>
          10 1 5 1 2.</_></rects>
      <tilted>0</tilted></_>
    <_>
      <rects>
        <_>
          5 0 10 2 -1.</_>
        <_>
          5 1 10 1 2.</_></rects>
      <tilted>0</tilted></_>
    <_>
      <rects>
        <_>
          5 1 2 16 -1.</_>
        <_>
          6 1 1 16 2.</_></rects>
      <tilted>0</tilted></_>
    <_>
      <rects>
        <_>
          5 1 12 6 -1.</_>
        <_>
          5 1 6 3 2.</_>
        <_>
          11 4 6 3 2.</_></rects>
      <tilted>0</tilted></_>
    <_>
      <rects>
        <_>
          5 2 2 2 -1.</_>
        <_>
          5 2 1 1 2.</_>
        <_>
          6 3 1 1 2.</_></rects>
      <tilted>0</tilted></_>
    <_>
      <rects>
        <_>
          5 2 2 4 -1.</_>
        <_>
          5 2 1 2 2.</_>
        <_>
          6 4 1 2 2.</_></rects>
      <tilted>0</tilted></_>
    <_>
      <rects>
        <_>
          5 13 4 4 -1.</_>
        <_>
          5 15 4 2 2.</_></rects>
      <tilted>0</tilted></_>
    <_>
      <rects>
        <_>
          5 15 12 2 -1.</_>
        <_>
          11 15 6 2 2.</_></rects>
      <tilted>0</tilted></_>
    <_>
      <rects>
        <_>
          6 0 3 5 -1.</_>
        <_>
          7 0 1 5 2.</_></rects>
      <tilted>0</tilted></_>
    <_>
      <rects>
        <_>
          6 0 6 4 -1.</_>
        <_>
          6 0 3 2 2.</_>
        <_>
          9 2 3 2 2.</_></rects>
      <tilted>0</tilted></_>
    <_>
      <rects>
        <_>
          6 0 4 8 -1.</_>
        <_>
          6 4 4 4 2.</_></rects>
      <tilted>0</tilted></_>
    <_>
      <rects>
        <_>
          6 0 7 10 -1.</_>
        <_>
          6 5 7 5 2.</_></rects>
      <tilted>0</tilted></_>
    <_>
      <rects>
        <_>
          6 0 8 2 -1.</_>
        <_>
          6 1 8 1 2.</_></rects>
      <tilted>0</tilted></_>
    <_>
      <rects>
        <_>
          6 1 6 2 -1.</_>
        <_>
          6 1 3 1 2.</_>
        <_>
          9 2 3 1 2.</_></rects>
      <tilted>0</tilted></_>
    <_>
      <rects>
        <_>
          6 1 8 2 -1.</_>
        <_>
          6 1 4 1 2.</_>
        <_>
          10 2 4 1 2.</_></rects>
      <tilted>0</tilted></_>
    <_>
      <rects>
        <_>
          6 1 5 2 -1.</_>
        <_>
          6 2 5 1 2.</_></rects>
      <tilted>0</tilted></_>
    <_>
      <rects>
        <_>
          6 1 5 3 -1.</_>
        <_>
          6 2 5 1 2.</_></rects>
      <tilted>0</tilted></_>
    <_>
      <rects>
        <_>
          6 1 11 4 -1.</_>
        <_>
          6 3 11 2 2.</_></rects>
      <tilted>0</tilted></_>
    <_>
      <rects>
        <_>
          6 2 9 3 -1.</_>
        <_>
          9 2 3 3 2.</_></rects>
      <tilted>0</tilted></_>
    <_>
      <rects>
        <_>
          6 2 6 2 -1.</_>
        <_>
          6 3 6 1 2.</_></rects>
      <tilted>0</tilted></_>
    <_>
      <rects>
        <_>
          6 3 4 4 -1.</_>
        <_>
          8 3 2 4 2.</_></rects>
      <tilted>0</tilted></_>
    <_>
      <rects>
        <_>
          6 3 7 2 -1.</_>
        <_>
          6 4 7 1 2.</_></rects>
      <tilted>0</tilted></_>
    <_>
      <rects>
        <_>
          6 3 7 6 -1.</_>
        <_>
          6 6 7 3 2.</_></rects>
      <tilted>0</tilted></_>
    <_>
      <rects>
        <_>
          6 6 10 10 -1.</_>
        <_>
          6 6 5 5 2.</_>
        <_>
          11 11 5 5 2.</_></rects>
      <tilted>0</tilted></_>
    <_>
      <rects>
        <_>
          6 9 1 2 -1.</_>
        <_>
          6 10 1 1 2.</_></rects>
      <tilted>0</tilted></_>
    <_>
      <rects>
        <_>
          6 10 1 2 -1.</_>
        <_>
          6 11 1 1 2.</_></rects>
      <tilted>0</tilted></_>
    <_>
      <rects>
        <_>
          6 11 9 2 -1.</_>
        <_>
          6 12 9 1 2.</_></rects>
      <tilted>0</tilted></_>
    <_>
      <rects>
        <_>
          6 13 11 4 -1.</_>
        <_>
          6 15 11 2 2.</_></rects>
      <tilted>0</tilted></_>
    <_>
      <rects>
        <_>
          6 15 11 2 -1.</_>
        <_>
          6 16 11 1 2.</_></rects>
      <tilted>0</tilted></_>
    <_>
      <rects>
        <_>
          7 0 4 10 -1.</_>
        <_>
          7 0 2 5 2.</_>
        <_>
          9 5 2 5 2.</_></rects>
      <tilted>0</tilted></_>
    <_>
      <rects>
        <_>
          7 0 4 2 -1.</_>
        <_>
          7 1 4 1 2.</_></rects>
      <tilted>0</tilted></_>
    <_>
      <rects>
        <_>
          7 0 8 2 -1.</_>
        <_>
          7 0 4 1 2.</_>
        <_>
          11 1 4 1 2.</_></rects>
      <tilted>0</tilted></_>
    <_>
      <rects>
        <_>
          7 1 4 2 -1.</_>
        <_>
          7 2 4 1 2.</_></rects>
      <tilted>0</tilted></_>
    <_>
      <rects>
        <_>
          7 1 10 10 -1.</_>
        <_>
          7 1 5 5 2.</_>
        <_>
          12 6 5 5 2.</_></rects>
      <tilted>0</tilted></_>
    <_>
      <rects>
        <_>
          7 2 4 2 -1.</_>
        <_>
          7 2 2 1 2.</_>
        <_>
          9 3 2 1 2.</_></rects>
      <tilted>0</tilted></_>
    <_>
      <rects>
        <_>
          7 2 4 8 -1.</_>
        <_>
          7 2 2 4 2.</_>
        <_>
          9 6 2 4 2.</_></rects>
      <tilted>0</tilted></_>
    <_>
      <rects>
        <_>
          7 2 5 2 -1.</_>
        <_>
          7 3 5 1 2.</_></rects>
      <tilted>0</tilted></_>
    <_>
      <rects>
        <_>
          7 3 6 9 -1.</_>
        <_>
          7 6 6 3 2.</_></rects>
      <tilted>0</tilted></_>
    <_>
      <rects>
        <_>
          7 5 7 8 -1.</_>
        <_>
          7 9 7 4 2.</_></rects>
      <tilted>0</tilted></_>
    <_>
      <rects>
        <_>
          7 6 1 8 -1.</_>
        <_>
          7 10 1 4 2.</_></rects>
      <tilted>0</tilted></_>
    <_>
      <rects>
        <_>
          7 7 2 1 -1.</_>
        <_>
          8 7 1 1 2.</_></rects>
      <tilted>0</tilted></_>
    <_>
      <rects>
        <_>
          7 7 6 2 -1.</_>
        <_>
          9 7 2 2 2.</_></rects>
      <tilted>0</tilted></_>
    <_>
      <rects>
        <_>
          7 7 8 9 -1.</_>
        <_>
          11 7 4 9 2.</_></rects>
      <tilted>0</tilted></_>
    <_>
      <rects>
        <_>
          7 8 1 2 -1.</_>
        <_>
          7 9 1 1 2.</_></rects>
      <tilted>0</tilted></_>
    <_>
      <rects>
        <_>
          7 8 4 8 -1.</_>
        <_>
          9 8 2 8 2.</_></rects>
      <tilted>0</tilted></_>
    <_>
      <rects>
        <_>
          7 10 10 2 -1.</_>
        <_>
          7 10 5 1 2.</_>
        <_>
          12 11 5 1 2.</_></rects>
      <tilted>0</tilted></_>
    <_>
      <rects>
        <_>
          7 14 1 2 -1.</_>
        <_>
          7 15 1 1 2.</_></rects>
      <tilted>0</tilted></_>
    <_>
      <rects>
        <_>
          7 14 7 2 -1.</_>
        <_>
          7 15 7 1 2.</_></rects>
      <tilted>0</tilted></_>
    <_>
      <rects>
        <_>
          7 15 8 2 -1.</_>
        <_>
          7 16 8 1 2.</_></rects>
      <tilted>0</tilted></_>
    <_>
      <rects>
        <_>
          8 0 3 3 -1.</_>
        <_>
          9 0 1 3 2.</_></rects>
      <tilted>0</tilted></_>
    <_>
      <rects>
        <_>
          8 0 6 2 -1.</_>
        <_>
          8 0 3 1 2.</_>
        <_>
          11 1 3 1 2.</_></rects>
      <tilted>0</tilted></_>
    <_>
      <rects>
        <_>
          8 1 6 3 -1.</_>
        <_>
          10 1 2 3 2.</_></rects>
      <tilted>0</tilted></_>
    <_>
      <rects>
        <_>
          8 1 4 2 -1.</_>
        <_>
          8 2 4 1 2.</_></rects>
      <tilted>0</tilted></_>
    <_>
      <rects>
        <_>
          8 2 4 2 -1.</_>
        <_>
          8 3 4 1 2.</_></rects>
      <tilted>0</tilted></_>
    <_>
      <rects>
        <_>
          8 3 2 2 -1.</_>
        <_>
          8 4 2 1 2.</_></rects>
      <tilted>0</tilted></_>
    <_>
      <rects>
        <_>
          8 3 4 2 -1.</_>
        <_>
          8 4 4 1 2.</_></rects>
      <tilted>0</tilted></_>
    <_>
      <rects>
        <_>
          8 3 5 2 -1.</_>
        <_>
          8 4 5 1 2.</_></rects>
      <tilted>0</tilted></_>
    <_>
      <rects>
        <_>
          8 5 8 3 -1.</_>
        <_>
          12 5 4 3 2.</_></rects>
      <tilted>0</tilted></_>
    <_>
      <rects>
        <_>
          8 5 9 2 -1.</_>
        <_>
          8 6 9 1 2.</_></rects>
      <tilted>0</tilted></_>
    <_>
      <rects>
        <_>
          8 6 4 6 -1.</_>
        <_>
          8 8 4 2 2.</_></rects>
      <tilted>0</tilted></_>
    <_>
      <rects>
        <_>
          8 9 4 8 -1.</_>
        <_>
          10 9 2 8 2.</_></rects>
      <tilted>0</tilted></_>
    <_>
      <rects>
        <_>
          8 10 1 2 -1.</_>
        <_>
          8 11 1 1 2.</_></rects>
      <tilted>0</tilted></_>
    <_>
      <rects>
        <_>
          8 13 8 4 -1.</_>
        <_>
          8 13 4 2 2.</_>
        <_>
          12 15 4 2 2.</_></rects>
      <tilted>0</tilted></_>
    <_>
      <rects>
        <_>
          8 14 5 2 -1.</_>
        <_>
          8 15 5 1 2.</_></rects>
      <tilted>0</tilted></_>
    <_>
      <rects>
        <_>
          8 16 6 1 -1.</_>
        <_>
          10 16 2 1 2.</_></rects>
      <tilted>0</tilted></_>
    <_>
      <rects>
        <_>
          9 0 1 2 -1.</_>
        <_>
          9 1 1 1 2.</_></rects>
      <tilted>0</tilted></_>
    <_>
      <rects>
        <_>
          9 0 6 3 -1.</_>
        <_>
          11 0 2 3 2.</_></rects>
      <tilted>0</tilted></_>
    <_>
      <rects>
        <_>
          9 0 8 2 -1.</_>
        <_>
          9 0 4 1 2.</_>
        <_>
          13 1 4 1 2.</_></rects>
      <tilted>0</tilted></_>
    <_>
      <rects>
        <_>
          9 0 8 8 -1.</_>
        <_>
          9 0 4 4 2.</_>
        <_>
          13 4 4 4 2.</_></rects>
      <tilted>0</tilted></_>
    <_>
      <rects>
        <_>
          9 1 2 2 -1.</_>
        <_>
          9 1 1 1 2.</_>
        <_>
          10 2 1 1 2.</_></rects>
      <tilted>0</tilted></_>
    <_>
      <rects>
        <_>
          9 1 6 2 -1.</_>
        <_>
          9 1 3 1 2.</_>
        <_>
          12 2 3 1 2.</_></rects>
      <tilted>0</tilted></_>
    <_>
      <rects>
        <_>
          9 3 2 2 -1.</_>
        <_>
          9 4 2 1 2.</_></rects>
      <tilted>0</tilted></_>
    <_>
      <rects>
        <_>
          9 7 1 2 -1.</_>
        <_>
          9 8 1 1 2.</_></rects>
      <tilted>0</tilted></_>
    <_>
      <rects>
        <_>
          9 7 1 4 -1.</_>
        <_>
          9 9 1 2 2.</_></rects>
      <tilted>0</tilted></_>
    <_>
      <rects>
        <_>
          9 8 1 2 -1.</_>
        <_>
          9 9 1 1 2.</_></rects>
      <tilted>0</tilted></_>
    <_>
      <rects>
        <_>
          9 10 2 2 -1.</_>
        <_>
          9 10 1 1 2.</_>
        <_>
          10 11 1 1 2.</_></rects>
      <tilted>0</tilted></_>
    <_>
      <rects>
        <_>
          9 15 3 2 -1.</_>
        <_>
          9 16 3 1 2.</_></rects>
      <tilted>0</tilted></_>
    <_>
      <rects>
        <_>
          9 15 8 2 -1.</_>
        <_>
          9 15 4 1 2.</_>
        <_>
          13 16 4 1 2.</_></rects>
      <tilted>0</tilted></_>
    <_>
      <rects>
        <_>
          9 15 5 2 -1.</_>
        <_>
          9 16 5 1 2.</_></rects>
      <tilted>0</tilted></_>
    <_>
      <rects>
        <_>
          10 1 1 8 -1.</_>
        <_>
          10 5 1 4 2.</_></rects>
      <tilted>0</tilted></_>
    <_>
      <rects>
        <_>
          10 1 6 2 -1.</_>
        <_>
          10 1 3 1 2.</_>
        <_>
          13 2 3 1 2.</_></rects>
      <tilted>0</tilted></_>
    <_>
      <rects>
        <_>
          10 3 4 2 -1.</_>
        <_>
          10 4 4 1 2.</_></rects>
      <tilted>0</tilted></_>
    <_>
      <rects>
        <_>
          10 5 6 10 -1.</_>
        <_>
          10 5 3 5 2.</_>
        <_>
          13 10 3 5 2.</_></rects>
      <tilted>0</tilted></_>
    <_>
      <rects>
        <_>
          10 6 4 8 -1.</_>
        <_>
          10 6 2 4 2.</_>
        <_>
          12 10 2 4 2.</_></rects>
      <tilted>0</tilted></_>
    <_>
      <rects>
        <_>
          10 7 6 6 -1.</_>
        <_>
          13 7 3 6 2.</_></rects>
      <tilted>0</tilted></_>
    <_>
      <rects>
        <_>
          10 8 4 8 -1.</_>
        <_>
          12 8 2 8 2.</_></rects>
      <tilted>0</tilted></_>
    <_>
      <rects>
        <_>
          10 10 4 2 -1.</_>
        <_>
          10 11 4 1 2.</_></rects>
      <tilted>0</tilted></_>
    <_>
      <rects>
        <_>
          10 15 6 2 -1.</_>
        <_>
          10 15 3 1 2.</_>
        <_>
          13 16 3 1 2.</_></rects>
      <tilted>0</tilted></_>
    <_>
      <rects>
        <_>
          10 16 3 1 -1.</_>
        <_>
          11 16 1 1 2.</_></rects>
      <tilted>0</tilted></_>
    <_>
      <rects>
        <_>
          11 0 2 1 -1.</_>
        <_>
          12 0 1 1 2.</_></rects>
      <tilted>0</tilted></_>
    <_>
      <rects>
        <_>
          11 0 6 2 -1.</_>
        <_>
          13 0 2 2 2.</_></rects>
      <tilted>0</tilted></_>
    <_>
      <rects>
        <_>
          11 0 6 1 -1.</_>
        <_>
          14 0 3 1 2.</_></rects>
      <tilted>0</tilted></_>
    <_>
      <rects>
        <_>
          11 0 6 17 -1.</_>
        <_>
          14 0 3 17 2.</_></rects>
      <tilted>0</tilted></_>
    <_>
      <rects>
        <_>
          11 3 2 8 -1.</_>
        <_>
          11 7 2 4 2.</_></rects>
      <tilted>0</tilted></_>
    <_>
      <rects>
        <_>
          11 3 6 4 -1.</_>
        <_>
          11 3 3 2 2.</_>
        <_>
          14 5 3 2 2.</_></rects>
      <tilted>0</tilted></_>
    <_>
      <rects>
        <_>
          11 4 6 8 -1.</_>
        <_>
          14 4 3 8 2.</_></rects>
      <tilted>0</tilted></_>
    <_>
      <rects>
        <_>
          11 4 6 12 -1.</_>
        <_>
          14 4 3 12 2.</_></rects>
      <tilted>0</tilted></_>
    <_>
      <rects>
        <_>
          11 5 6 4 -1.</_>
        <_>
          14 5 3 4 2.</_></rects>
      <tilted>0</tilted></_>
    <_>
      <rects>
        <_>
          11 8 1 2 -1.</_>
        <_>
          11 9 1 1 2.</_></rects>
      <tilted>0</tilted></_>
    <_>
      <rects>
        <_>
          11 8 5 2 -1.</_>
        <_>
          11 9 5 1 2.</_></rects>
      <tilted>0</tilted></_>
    <_>
      <rects>
        <_>
          11 10 1 2 -1.</_>
        <_>
          11 11 1 1 2.</_></rects>
      <tilted>0</tilted></_>
    <_>
      <rects>
        <_>
          11 14 5 2 -1.</_>
        <_>
          11 15 5 1 2.</_></rects>
      <tilted>0</tilted></_>
    <_>
      <rects>
        <_>
          11 16 2 1 -1.</_>
        <_>
          12 16 1 1 2.</_></rects>
      <tilted>0</tilted></_>
    <_>
      <rects>
        <_>
          12 3 4 4 -1.</_>
        <_>
          12 3 2 2 2.</_>
        <_>
          14 5 2 2 2.</_></rects>
      <tilted>0</tilted></_>
    <_>
      <rects>
        <_>
          12 4 2 2 -1.</_>
        <_>
          12 4 1 1 2.</_>
        <_>
          13 5 1 1 2.</_></rects>
      <tilted>0</tilted></_>
    <_>
      <rects>
        <_>
          12 4 4 8 -1.</_>
        <_>
          12 4 2 4 2.</_>
        <_>
          14 8 2 4 2.</_></rects>
      <tilted>0</tilted></_>
    <_>
      <rects>
        <_>
          12 4 3 4 -1.</_>
        <_>
          12 6 3 2 2.</_></rects>
      <tilted>0</tilted></_>
    <_>
      <rects>
        <_>
          12 5 2 4 -1.</_>
        <_>
          12 5 1 2 2.</_>
        <_>
          13 7 1 2 2.</_></rects>
      <tilted>0</tilted></_>
    <_>
      <rects>
        <_>
          12 5 2 8 -1.</_>
        <_>
          12 5 1 4 2.</_>
        <_>
          13 9 1 4 2.</_></rects>
      <tilted>0</tilted></_>
    <_>
      <rects>
        <_>
          12 7 1 8 -1.</_>
        <_>
          12 11 1 4 2.</_></rects>
      <tilted>0</tilted></_>
    <_>
      <rects>
        <_>
          12 7 2 6 -1.</_>
        <_>
          12 10 2 3 2.</_></rects>
      <tilted>0</tilted></_>
    <_>
      <rects>
        <_>
          12 10 2 2 -1.</_>
        <_>
          12 10 1 1 2.</_>
        <_>
          13 11 1 1 2.</_></rects>
      <tilted>0</tilted></_>
    <_>
      <rects>
        <_>
          12 11 2 2 -1.</_>
        <_>
          13 11 1 2 2.</_></rects>
      <tilted>0</tilted></_>
    <_>
      <rects>
        <_>
          12 11 1 6 -1.</_>
        <_>
          12 14 1 3 2.</_></rects>
      <tilted>0</tilted></_>
    <_>
      <rects>
        <_>
          12 11 2 6 -1.</_>
        <_>
          13 11 1 6 2.</_></rects>
      <tilted>0</tilted></_>
    <_>
      <rects>
        <_>
          12 12 4 4 -1.</_>
        <_>
          12 14 4 2 2.</_></rects>
      <tilted>0</tilted></_>
    <_>
      <rects>
        <_>
          12 15 1 2 -1.</_>
        <_>
          12 16 1 1 2.</_></rects>
      <tilted>0</tilted></_>
    <_>
      <rects>
        <_>
          12 16 2 1 -1.</_>
        <_>
          13 16 1 1 2.</_></rects>
      <tilted>0</tilted></_>
    <_>
      <rects>
        <_>
          12 16 3 1 -1.</_>
        <_>
          13 16 1 1 2.</_></rects>
      <tilted>0</tilted></_>
    <_>
      <rects>
        <_>
          13 0 2 1 -1.</_>
        <_>
          14 0 1 1 2.</_></rects>
      <tilted>0</tilted></_>
    <_>
      <rects>
        <_>
          13 4 4 8 -1.</_>
        <_>
          15 4 2 8 2.</_></rects>
      <tilted>0</tilted></_>
    <_>
      <rects>
        <_>
          13 5 4 6 -1.</_>
        <_>
          13 5 2 3 2.</_>
        <_>
          15 8 2 3 2.</_></rects>
      <tilted>0</tilted></_>
    <_>
      <rects>
        <_>
          13 5 4 8 -1.</_>
        <_>
          13 5 2 4 2.</_>
        <_>
          15 9 2 4 2.</_></rects>
      <tilted>0</tilted></_>
    <_>
      <rects>
        <_>
          13 5 4 7 -1.</_>
        <_>
          15 5 2 7 2.</_></rects>
      <tilted>0</tilted></_>
    <_>
      <rects>
        <_>
          13 5 4 9 -1.</_>
        <_>
          15 5 2 9 2.</_></rects>
      <tilted>0</tilted></_>
    <_>
      <rects>
        <_>
          13 6 4 8 -1.</_>
        <_>
          13 6 2 4 2.</_>
        <_>
          15 10 2 4 2.</_></rects>
      <tilted>0</tilted></_>
    <_>
      <rects>
        <_>
          13 6 4 6 -1.</_>
        <_>
          15 6 2 6 2.</_></rects>
      <tilted>0</tilted></_>
    <_>
      <rects>
        <_>
          13 8 4 4 -1.</_>
        <_>
